{"type":"LSTM","options":{"inputSize":55,"inputRange":55,"hiddenLayers":[20,20],"outputSize":55,"decayRate":0.999,"smoothEps":1e-8,"regc":0.000001,"clipval":5,"maxPredictionLength":100,"dataFormatter":{"values":["null"],"indexTable":{"2":30,"4":29,"6":43,"h":0,"e":1,"l":2,"o":3,"H":4,"!":5,"g":6,"d":7,"b":8,"y":9,"B":10,"i":11,"w":12," ":13,"a":14,"r":15,"u":16,"I":17,"'":18,"m":19,"t":20,"s":21,"n":22,"v":23,".":24,"G":25,"Y":26,"p":27,"f":28,"?":31,"c":32,"A":33,",":34,"S":35,"k":36,"T":37,"x":38,"M":39,"J":40,"N":41,"W":42,"O":44,"j":45,"U":46,"D":47,"C":48,"P":49,"F":50,"L":51,"stop-input":52,"start-output":53,"unrecognized":54},"characterTable":{"0":"h","1":"e","2":"l","3":"o","4":"H","5":"!","6":"g","7":"d","8":"b","9":"y","10":"B","11":"i","12":"w","13":" ","14":"a","15":"r","16":"u","17":"I","18":"'","19":"m","20":"t","21":"s","22":"n","23":"v","24":".","25":"G","26":"Y","27":"p","28":"f","29":"4","30":"2","31":"?","32":"c","33":"A","34":",","35":"S","36":"k","37":"T","38":"x","39":"M","40":"J","41":"N","42":"W","43":"6","44":"O","45":"j","46":"U","47":"D","48":"C","49":"P","50":"F","51":"L","52":null,"53":null,"54":null},"characters":["h","e","l","o","H","!","g","d","b","y","B","i","w"," ","a","r","u","I","'","m","t","s","n","v",".","G","Y","p","f","4","2","?","c","A",",","S","k","T","x","M","J","N","W","6","O","j","U","D","C","P","F","L","stop-input","start-output","unrecognized"],"specialIndexes":[52,53,54]}},"input":{"rows":56,"columns":55,"weights":{"0":-0.49328845739364624,"1":-0.1420883685350418,"2":-1.0487669706344604,"3":0.6861729621887207,"4":0.7390621900558472,"5":0.7240025997161865,"6":-0.514062762260437,"7":0.7555405497550964,"8":0.16614477336406708,"9":0.5899457335472107,"10":0.26754459738731384,"11":-1.0119943618774414,"12":1.124118447303772,"13":-0.5575705766677856,"14":0.8942885398864746,"15":0.12865684926509857,"16":0.5065470337867737,"17":2.179171085357666,"18":0.24798624217510223,"19":0.3509844243526459,"20":-1.775012493133545,"21":0.6459067463874817,"22":1.5355618000030518,"23":-2.2338786125183105,"24":0.474520206451416,"25":-0.3127298057079315,"26":0.5554303526878357,"27":-1.0384279489517212,"28":0.759404182434082,"29":-0.04236110299825668,"30":0.7112340927124023,"31":0.6204566359519958,"32":-0.16319315135478973,"33":-0.5089682936668396,"34":-0.891555905342102,"35":0.13499748706817627,"36":0.036354910582304,"37":0.19055166840553284,"38":1.1005873680114746,"39":0.23285432159900665,"40":0.1615322232246399,"41":-0.055801037698984146,"42":0.2956003248691559,"43":1.1126108169555664,"44":0.8879182934761047,"45":-0.8033780455589294,"46":0.034933678805828094,"47":0.19763551652431488,"48":1.096420168876648,"49":-1.220894694328308,"50":-0.09065559506416321,"51":0.010794498026371002,"52":-2.2254204750061035,"53":-0.1685885190963745,"54":-0.8997241854667664,"55":-0.11674086004495621,"56":-1.2546664476394653,"57":1.4470725059509277,"58":0.21907730400562286,"59":-0.19881971180438995,"60":0.4992639422416687,"61":0.7416597008705139,"62":1.1865043640136719,"63":-0.9039791226387024,"64":-0.7093151211738586,"65":2.888262987136841,"66":-0.5639376640319824,"67":3.4048678874969482,"68":0.3209405243396759,"69":0.08617657423019409,"70":-1.2573879957199097,"71":0.6072369813919067,"72":1.6617118120193481,"73":0.017338497564196587,"74":1.5833083391189575,"75":-1.554247260093689,"76":0.5078802704811096,"77":-2.1516506671905518,"78":-1.2693997621536255,"79":-0.08562997728586197,"80":1.1744481325149536,"81":1.0041096210479736,"82":0.1943478137254715,"83":-0.25714391469955444,"84":0.8516542315483093,"85":2.050905227661133,"86":1.0474913120269775,"87":0.8927080035209656,"88":2.504776954650879,"89":-1.2654311656951904,"90":-1.6565543413162231,"91":2.251892566680908,"92":-0.6900412440299988,"93":1.3411498069763184,"94":-1.1145316362380981,"95":3.1610569953918457,"96":-1.6261353492736816,"97":2.3935282230377197,"98":-1.7091689109802246,"99":-0.2525787353515625,"100":-0.09800336509943008,"101":-0.08400153368711472,"102":-3.729671001434326,"103":2.8455803394317627,"104":1.3154473304748535,"105":-1.6564947366714478,"106":-0.908613920211792,"107":-1.513738751411438,"108":-0.8538731932640076,"109":0.4455055296421051,"110":-0.10234344005584717,"111":-0.7019914984703064,"112":1.055920124053955,"113":2.0278189182281494,"114":-0.258802592754364,"115":0.1664268672466278,"116":-0.08846909552812576,"117":-4.543613433837891,"118":0.027753882110118866,"119":0.11816724389791489,"120":0.25285640358924866,"121":0.3163536489009857,"122":-1.4371484518051147,"123":-0.4478960633277893,"124":1.9802372455596924,"125":-0.6876950860023499,"126":0.5835412740707397,"127":-0.09317389875650406,"128":1.4158653020858765,"129":0.705236554145813,"130":3.6916263103485107,"131":0.38154932856559753,"132":0.1829271912574768,"133":1.2254257202148438,"134":-1.387041687965393,"135":-2.21216082572937,"136":-0.28261932730674744,"137":0.40916839241981506,"138":-0.34606972336769104,"139":0.487034410238266,"140":0.33101823925971985,"141":-0.6480873823165894,"142":-0.1396389752626419,"143":0.2404627501964569,"144":-1.7625508308410645,"145":1.7588871717453003,"146":0.2245422750711441,"147":-0.21504047513008118,"148":0.11246225237846375,"149":0.2638867199420929,"150":-0.8668360710144043,"151":0.7902876734733582,"152":-1.338549256324768,"153":-1.8449877500534058,"154":-1.0165847539901733,"155":0.8037127256393433,"156":1.2432408332824707,"157":-0.1276477575302124,"158":-2.2231595516204834,"159":-1.2203322649002075,"160":1.67839515209198,"161":-1.5041958093643188,"162":1.0724705457687378,"163":-0.30580222606658936,"164":0.48061633110046387,"165":0.6094062328338623,"166":-1.915488362312317,"167":-1.4206911325454712,"168":1.642583966255188,"169":0.4978809654712677,"170":-0.5054789781570435,"171":0.04569109529256821,"172":0.6456745266914368,"173":-0.06477008014917374,"174":0.8072529435157776,"175":0.9785240292549133,"176":-1.1940816640853882,"177":2.051661729812622,"178":-0.5234158635139465,"179":-0.24245776236057281,"180":0.1456572413444519,"181":0.5324983596801758,"182":-0.0873415395617485,"183":-0.14633923768997192,"184":0.5436963438987732,"185":0.31802237033843994,"186":-0.26224884390830994,"187":0.4858742952346802,"188":0.11673542112112045,"189":3.996222972869873,"190":-0.1089133471250534,"191":1.2766337394714355,"192":-0.19228993356227875,"193":0.905131995677948,"194":-0.8456472158432007,"195":1.3739732503890991,"196":0.47152358293533325,"197":-0.8630568981170654,"198":0.16024905443191528,"199":0.42840149998664856,"200":-1.0367461442947388,"201":0.35839158296585083,"202":0.16481222212314606,"203":-1.3575046062469482,"204":-0.13213391602039337,"205":1.384153962135315,"206":-0.7640461921691895,"207":0.451218843460083,"208":-1.837533950805664,"209":-0.010988901369273663,"210":-1.2585138082504272,"211":0.3428480625152588,"212":0.08064251393079758,"213":-0.6502885818481445,"214":1.2269604206085205,"215":-0.29295065999031067,"216":0.6207541227340698,"217":1.0900245904922485,"218":-0.8332154154777527,"219":1.279303789138794,"220":0.5776841640472412,"221":-1.240756869316101,"222":0.8741362690925598,"223":0.1788564920425415,"224":1.475419282913208,"225":-0.11443180590867996,"226":0.15730208158493042,"227":1.7855535745620728,"228":-0.6644207835197449,"229":-0.6248653531074524,"230":0.16915102303028107,"231":-0.5451845526695251,"232":0.04646729305386543,"233":0.823463499546051,"234":0.48939248919487,"235":-0.6695812940597534,"236":0.8760132789611816,"237":-0.8660162091255188,"238":0.33269599080085754,"239":0.951472282409668,"240":0.26443061232566833,"241":0.038890738040208817,"242":-0.5511913895606995,"243":1.7191609144210815,"244":0.4231323301792145,"245":0.16899634897708893,"246":-0.4616338908672333,"247":0.00033641481422819197,"248":0.28186270594596863,"249":-0.31524160504341125,"250":0.6258549094200134,"251":-0.12704963982105255,"252":-1.1811091899871826,"253":0.029053786769509315,"254":1.2303001880645752,"255":-1.5864416360855103,"256":1.2970073223114014,"257":0.21768803894519806,"258":0.3146956264972687,"259":-0.39982935786247253,"260":0.6660727858543396,"261":0.1344318836927414,"262":0.16950713098049164,"263":-2.630319833755493,"264":-0.053470462560653687,"265":-1.4058533906936646,"266":-1.0545827150344849,"267":-0.09833637624979019,"268":-1.3946609497070312,"269":-1.8105108737945557,"270":-1.027099609375,"271":0.8080502152442932,"272":-1.439117431640625,"273":-0.44076794385910034,"274":-0.10648312419652939,"275":-3.233914852142334,"276":-0.1636861115694046,"277":-1.726428747177124,"278":2.6161715984344482,"279":2.0698390007019043,"280":3.4833567142486572,"281":0.2958543598651886,"282":0.4974779784679413,"283":-2.6612095832824707,"284":-0.34993475675582886,"285":3.0565009117126465,"286":-1.304577112197876,"287":-1.263112187385559,"288":-1.837781310081482,"289":-0.218102365732193,"290":2.463318109512329,"291":-0.3769499659538269,"292":2.865844249725342,"293":-4.4831953048706055,"294":-3.7442305088043213,"295":-2.5867040157318115,"296":2.0796873569488525,"297":-3.8389389514923096,"298":-2.5528130531311035,"299":11.144014358520508,"300":4.600851535797119,"301":5.50963020324707,"302":-1.9851590394973755,"303":-2.5282819271087646,"304":2.315559148788452,"305":0.9299548268318176,"306":0.4894492030143738,"307":-3.9797873497009277,"308":0.5477883815765381,"309":0.5232080817222595,"310":0.6864265203475952,"311":1.3010584115982056,"312":0.010740368627011776,"313":0.7433045506477356,"314":0.28933367133140564,"315":-2.127922296524048,"316":-0.8060257434844971,"317":2.0323705673217773,"318":-4.0757060050964355,"319":-2.84096360206604,"320":-2.7014222145080566,"321":1.1732443571090698,"322":3.9464540481567383,"323":-4.2090559005737305,"324":-0.5027872323989868,"325":-0.691421627998352,"326":2.81177020072937,"327":-9.255179405212402,"328":-1.2348953485488892,"329":-1.8561738729476929,"330":0.8273146748542786,"331":2.1204421520233154,"332":3.4662930965423584,"333":-7.880868911743164,"334":1.9964804649353027,"335":4.692359447479248,"336":3.616661310195923,"337":-1.7713736295700073,"338":0.8323547840118408,"339":1.6000615358352661,"340":0.6982221007347107,"341":3.4596238136291504,"342":0.3538611829280853,"343":-2.3936662673950195,"344":4.279107570648193,"345":1.1148334741592407,"346":0.16847734153270721,"347":3.7848761081695557,"348":1.9465800523757935,"349":0.9924164414405823,"350":1.2728147506713867,"351":-0.33552610874176025,"352":-0.8807693123817444,"353":-0.1448868364095688,"354":-4.549188137054443,"355":-2.2398550510406494,"356":4.709947109222412,"357":-1.3173081874847412,"358":-1.826459527015686,"359":1.8917592763900757,"360":-1.2459748983383179,"361":3.781507968902588,"362":2.464548110961914,"363":-3.3321540355682373,"364":-1.422459602355957,"365":1.703231692314148,"366":-1.4408175945281982,"367":-1.396022915840149,"368":4.257516860961914,"369":-0.17691673338413239,"370":0.8179843425750732,"371":3.3548972606658936,"372":-5.342796802520752,"373":2.414158582687378,"374":-2.646188259124756,"375":-3.835869550704956,"376":2.543159246444702,"377":-0.9897179007530212,"378":1.1452155113220215,"379":3.2816882133483887,"380":-1.2108157873153687,"381":1.1289055347442627,"382":1.4717549085617065,"383":-1.2984145879745483,"384":0.384453684091568,"385":-1.0846372842788696,"386":-2.0667572021484375,"387":-2.0845134258270264,"388":0.4625961482524872,"389":0.22660067677497864,"390":0.6352542638778687,"391":-0.34068435430526733,"392":0.58661949634552,"393":0.8020055294036865,"394":1.855163812637329,"395":0.39828425645828247,"396":-0.024670515209436417,"397":0.3710997700691223,"398":-2.878178834915161,"399":-0.6233360171318054,"400":-2.4315907955169678,"401":-0.16711027920246124,"402":3.582636833190918,"403":-0.49076002836227417,"404":0.7983896136283875,"405":-0.2329288274049759,"406":1.6324458122253418,"407":-0.7025532126426697,"408":-0.9031599164009094,"409":0.9357079863548279,"410":-2.9120423793792725,"411":0.874516487121582,"412":-1.7339011430740356,"413":0.8057131171226501,"414":0.15370801091194153,"415":1.0249277353286743,"416":-0.24436160922050476,"417":3.644477367401123,"418":1.2571195363998413,"419":1.3494226932525635,"420":-2.234841823577881,"421":1.0389199256896973,"422":0.8258830308914185,"423":-1.316554307937622,"424":-3.5387420654296875,"425":1.1593091487884521,"426":-1.3880671262741089,"427":2.251018524169922,"428":-0.5026522278785706,"429":-0.16518861055374146,"430":3.265090227127075,"431":2.6664905548095703,"432":-1.128814697265625,"433":1.097084879875183,"434":-2.1546595096588135,"435":0.35338717699050903,"436":-0.8933559060096741,"437":-2.500345468521118,"438":0.7829869985580444,"439":-1.458709955215454,"440":-0.21478529274463654,"441":-1.8613522052764893,"442":-5.833083152770996,"443":0.8755306601524353,"444":-0.09986164420843124,"445":0.9174759984016418,"446":-1.3675287961959839,"447":0.3576816916465759,"448":0.5630484223365784,"449":1.0923833847045898,"450":-0.28141555190086365,"451":-0.4173593521118164,"452":-1.8301893472671509,"453":-0.9997143745422363,"454":-0.2885928750038147,"455":-1.849352240562439,"456":-1.0514603853225708,"457":-0.7424873113632202,"458":1.5342961549758911,"459":1.5286201238632202,"460":0.34357136487960815,"461":0.8146654367446899,"462":0.14208248257637024,"463":0.4217945337295532,"464":2.913999557495117,"465":-2.253976821899414,"466":1.5275071859359741,"467":-2.611377000808716,"468":-0.3861725330352783,"469":-0.9994124174118042,"470":-0.6728688478469849,"471":0.1846931129693985,"472":-1.8110955953598022,"473":-0.611599326133728,"474":-0.7312019467353821,"475":-2.4439947605133057,"476":1.1029725074768066,"477":0.7627935409545898,"478":-2.8438143730163574,"479":0.20732168853282928,"480":0.3329291045665741,"481":1.2313330173492432,"482":2.4729342460632324,"483":-1.6035432815551758,"484":0.05049567297101021,"485":1.2787119150161743,"486":3.433208465576172,"487":0.4318622052669525,"488":-1.7279798984527588,"489":0.12793982028961182,"490":0.7367053627967834,"491":0.09747191518545151,"492":-0.5449349880218506,"493":-1.3479028940200806,"494":-2.9309887886047363,"495":-1.4578883647918701,"496":-2.8752851486206055,"497":0.23135720193386078,"498":-3.483152151107788,"499":0.28763547539711,"500":0.2464587390422821,"501":-2.522148370742798,"502":-2.6448183059692383,"503":-0.29784587025642395,"504":-1.4257819652557373,"505":0.4520382583141327,"506":0.31062111258506775,"507":-0.3034518361091614,"508":-2.0005526542663574,"509":0.9008384943008423,"510":0.9469084739685059,"511":-1.8645613193511963,"512":-1.006587266921997,"513":-1.7190144062042236,"514":0.37401530146598816,"515":-2.7069783210754395,"516":0.3305487632751465,"517":-3.564112901687622,"518":-1.2678312063217163,"519":1.7643017768859863,"520":-1.7199400663375854,"521":1.1588112115859985,"522":-0.09325457364320755,"523":1.8049237728118896,"524":-2.3176400661468506,"525":0.9547211527824402,"526":0.7729964256286621,"527":-0.30775415897369385,"528":0.22588858008384705,"529":1.4984440803527832,"530":0.6422933340072632,"531":1.6575794219970703,"532":2.526853084564209,"533":0.23575173318386078,"534":-3.1700663566589355,"535":0.6131497025489807,"536":0.3492331802845001,"537":0.015004655346274376,"538":-0.8600242137908936,"539":1.2014727592468262,"540":-0.04880385473370552,"541":0.8111640214920044,"542":0.2972687780857086,"543":-0.5105872750282288,"544":-3.553446054458618,"545":1.505698561668396,"546":2.145009756088257,"547":-0.5439252257347107,"548":0.37316805124282837,"549":-0.6995964646339417,"550":0.22621063888072968,"551":-0.15869112312793732,"552":3.3536345958709717,"553":-0.40389513969421387,"554":1.221817970275879,"555":-0.16681212186813354,"556":-1.0677244663238525,"557":-0.8079817891120911,"558":0.527990996837616,"559":-1.3697272539138794,"560":0.5644437074661255,"561":0.23118360340595245,"562":0.5236638188362122,"563":-0.053697310388088226,"564":0.6271255612373352,"565":-1.867221713066101,"566":-0.08482904732227325,"567":-0.22656233608722687,"568":0.3825491964817047,"569":0.2164684683084488,"570":0.49311622977256775,"571":0.2751617133617401,"572":-0.23957566916942596,"573":-0.6131755709648132,"574":-0.6979351043701172,"575":-2.104426383972168,"576":-0.3812999427318573,"577":2.241260290145874,"578":0.5702297687530518,"579":-2.890155076980591,"580":-0.7767937183380127,"581":0.22713670134544373,"582":-1.5620430707931519,"583":1.589508056640625,"584":-2.456843852996826,"585":-0.5931041836738586,"586":0.5081730484962463,"587":-0.07427234202623367,"588":2.542903423309326,"589":-1.842629075050354,"590":2.8622934818267822,"591":0.015739362686872482,"592":0.8063197135925293,"593":-0.2819667458534241,"594":0.2224215716123581,"595":1.201384425163269,"596":-0.3996310234069824,"597":1.969704270362854,"598":-2.050605297088623,"599":0.6551451086997986,"600":-2.2689642906188965,"601":0.1444387137889862,"602":0.9421322345733643,"603":-0.9753581881523132,"604":-0.4656801223754883,"605":3.2161450386047363,"606":-8.598362922668457,"607":-1.8570406436920166,"608":1.4825083017349243,"609":8.566499710083008,"610":0.08049582690000534,"611":-4.6864824295043945,"612":-14.056344985961914,"613":-5.497567653656006,"614":-3.4023938179016113,"615":4.405083179473877,"616":-2.1699793338775635,"617":-11.79384708404541,"618":8.57056713104248,"619":2.13008975982666,"620":-6.770256996154785,"621":-1.3656870126724243,"622":4.343815326690674,"623":-4.348404407501221,"624":5.4332122802734375,"625":-1.5289207696914673,"626":-4.113367557525635,"627":4.107442378997803,"628":0.4837324321269989,"629":-2.2830216884613037,"630":-6.35178279876709,"631":2.230931043624878,"632":-4.326576232910156,"633":5.227684020996094,"634":0.14664115011692047,"635":4.852392673492432,"636":-5.507123947143555,"637":-4.213885307312012,"638":1.288193702697754,"639":-4.884130001068115,"640":5.4145050048828125,"641":3.6100142002105713,"642":-1.335433840751648,"643":3.6385140419006348,"644":0.48525407910346985,"645":7.430612564086914,"646":-6.86018180847168,"647":-3.6229753494262695,"648":-0.5794912576675415,"649":-2.730842113494873,"650":-0.23985536396503448,"651":-3.1155025959014893,"652":-0.5199090242385864,"653":-5.838770866394043,"654":-6.333953380584717,"655":8.860475540161133,"656":7.354073524475098,"657":2.469942092895508,"658":0.4662744104862213,"659":2.979905128479004,"660":-1.0625356435775757,"661":-1.3907573223114014,"662":-0.27371326088905334,"663":-0.22395861148834229,"664":0.7942742109298706,"665":1.0407270193099976,"666":-1.1380139589309692,"667":0.0840800553560257,"668":-0.49539873003959656,"669":1.428181767463684,"670":0.11152376234531403,"671":-0.27244436740875244,"672":1.9833602905273438,"673":-0.32847777009010315,"674":-0.6061517000198364,"675":-0.5316864252090454,"676":2.9229328632354736,"677":0.9591827392578125,"678":-1.1628586053848267,"679":0.04918917268514633,"680":0.05656883493065834,"681":0.6184941530227661,"682":-0.0684877559542656,"683":-1.2539896965026855,"684":0.6833542585372925,"685":-0.9355633854866028,"686":1.22092604637146,"687":0.3036598563194275,"688":0.11627884954214096,"689":-0.0005354931345209479,"690":-0.7607138752937317,"691":0.12375343590974808,"692":-0.40451720356941223,"693":1.1024829149246216,"694":1.3407666683197021,"695":0.49806544184684753,"696":1.0385329723358154,"697":-0.29016855359077454,"698":1.8910174369812012,"699":-3.6134908199310303,"700":-0.49205881357192993,"701":0.9129464626312256,"702":-1.051960825920105,"703":-0.09224788099527359,"704":0.007909074425697327,"705":0.7466771602630615,"706":4.063870429992676,"707":0.318973183631897,"708":-0.8242272734642029,"709":-0.22621586918830872,"710":1.3631513118743896,"711":-0.28047388792037964,"712":-0.2861354947090149,"713":-0.05464193969964981,"714":0.20416443049907684,"715":-0.4266569912433624,"716":0.593829333782196,"717":0.1843367964029312,"718":-1.341538906097412,"719":0.1390264332294464,"720":2.998847484588623,"721":-0.8882923722267151,"722":-0.34786468744277954,"723":-0.5513479709625244,"724":-0.5229846239089966,"725":1.5655871629714966,"726":0.3350440561771393,"727":-0.07496155798435211,"728":0.030323876067996025,"729":-1.8488185405731201,"730":2.9072492122650146,"731":-0.26585477590560913,"732":-4.620882511138916,"733":2.008610963821411,"734":2.1879141330718994,"735":-0.6619821190834045,"736":1.3006772994995117,"737":-0.9531583189964294,"738":-0.34495803713798523,"739":0.3745366036891937,"740":-1.0397756099700928,"741":2.3868939876556396,"742":0.41154247522354126,"743":0.33106231689453125,"744":-0.4499260187149048,"745":0.3728085160255432,"746":0.5311257839202881,"747":-1.6221619844436646,"748":2.1369364261627197,"749":-0.09947909414768219,"750":1.0129045248031616,"751":0.6470300555229187,"752":1.0333997011184692,"753":-0.08712577819824219,"754":1.310121774673462,"755":1.0248303413391113,"756":-0.23201413452625275,"757":2.4295830726623535,"758":0.7299516201019287,"759":-0.89873206615448,"760":1.1106935739517212,"761":-2.6073036193847656,"762":1.0255756378173828,"763":0.018406562507152557,"764":0.8277129530906677,"765":-1.151197910308838,"766":1.2936142683029175,"767":-1.5948797464370728,"768":-0.8855054378509521,"769":0.4456344246864319,"770":-0.48565027117729187,"771":-0.3043912947177887,"772":0.11736328899860382,"773":0.31396201252937317,"774":1.047576904296875,"775":2.9085915088653564,"776":-1.8077093362808228,"777":-1.2536174058914185,"778":0.5731264352798462,"779":1.8732012510299683,"780":-0.2909645140171051,"781":-0.09076107293367386,"782":-0.5195211172103882,"783":-0.40298494696617126,"784":-0.7615821361541748,"785":-0.6471946835517883,"786":1.730567216873169,"787":-0.34525230526924133,"788":0.6264698505401611,"789":0.1342860907316208,"790":2.1168594360351562,"791":0.07481930404901505,"792":-0.6658995151519775,"793":0.5880718231201172,"794":0.5948611497879028,"795":-0.9889549016952515,"796":0.6971830129623413,"797":0.02018890157341957,"798":-0.011860916391015053,"799":0.1194101870059967,"800":1.1762890815734863,"801":0.5857738852500916,"802":0.699084997177124,"803":0.24068771302700043,"804":0.006932789925485849,"805":0.4365074038505554,"806":0.5219234228134155,"807":-1.6701680421829224,"808":-0.7542861700057983,"809":-1.8956736326217651,"810":-0.5292821526527405,"811":0.5354496240615845,"812":0.5691677927970886,"813":-2.1314337253570557,"814":-0.37884974479675293,"815":-0.15440809726715088,"816":0.7248960137367249,"817":0.21678689122200012,"818":-0.9478517770767212,"819":-1.8865277767181396,"820":1.962721586227417,"821":-0.15466035902500153,"822":0.7918405532836914,"823":-0.46625223755836487,"824":0.5193033218383789,"825":-0.9089353680610657,"826":-0.3747202157974243,"827":-0.33068719506263733,"828":0.4355926513671875,"829":0.18691444396972656,"830":1.6339969635009766,"831":-1.020168662071228,"832":-0.20752230286598206,"833":-1.7619351148605347,"834":0.9221920967102051,"835":0.4137117862701416,"836":-0.6351090669631958,"837":1.0235621929168701,"838":-0.06758533418178558,"839":-0.053719546645879745,"840":1.5495496988296509,"841":0.7677005529403687,"842":0.27241677045822144,"843":0.31372177600860596,"844":-0.5991438031196594,"845":-0.17448563873767853,"846":0.15864016115665436,"847":0.16584739089012146,"848":-0.4409253001213074,"849":1.9812114238739014,"850":-0.9113978743553162,"851":0.3355771601200104,"852":0.08200085908174515,"853":0.952315628528595,"854":-0.8755139112472534,"855":0.7880505919456482,"856":0.7791105508804321,"857":0.06625770777463913,"858":0.4027658998966217,"859":1.3117945194244385,"860":-0.8810524940490723,"861":1.15714430809021,"862":-0.5269998908042908,"863":-0.7302187085151672,"864":-1.3396508693695068,"865":2.322295665740967,"866":1.0275967121124268,"867":0.6454192399978638,"868":-1.7138868570327759,"869":-0.09289278835058212,"870":-1.3147521018981934,"871":1.7955186367034912,"872":0.25901198387145996,"873":0.2741938829421997,"874":1.0141655206680298,"875":1.9365997314453125,"876":0.9529975056648254,"877":1.334214687347412,"878":0.34862908720970154,"879":0.11415337026119232,"880":-0.8665226101875305,"881":-1.2181687355041504,"882":1.0297086238861084,"883":-0.9101457595825195,"884":1.5522310733795166,"885":-1.226862907409668,"886":1.5465360879898071,"887":-0.2496679127216339,"888":-0.3248758912086487,"889":-0.8502371907234192,"890":0.3241368532180786,"891":-0.7638218998908997,"892":1.0675801038742065,"893":-0.30226364731788635,"894":0.1873607486486435,"895":0.7479457259178162,"896":0.08369670063257217,"897":-0.9132355451583862,"898":-0.6724368929862976,"899":1.6934925317764282,"900":-0.9475612640380859,"901":-0.29941752552986145,"902":-1.071341872215271,"903":-0.2640819549560547,"904":1.1266930103302002,"905":0.18035979568958282,"906":1.5537464618682861,"907":0.5636799931526184,"908":1.885860800743103,"909":-0.15098538994789124,"910":1.661056399345398,"911":-0.9143792986869812,"912":-1.2185401916503906,"913":-2.3471875190734863,"914":-1.4534202814102173,"915":1.2229063510894775,"916":-0.15801078081130981,"917":-0.8270869255065918,"918":-0.4358508884906769,"919":-0.12098978459835052,"920":1.071421504020691,"921":0.9063814878463745,"922":1.6797897815704346,"923":-0.011315937153995037,"924":-0.6309419274330139,"925":0.025193361565470695,"926":0.09975233674049377,"927":-0.5756818652153015,"928":-1.089100956916809,"929":-2.91426157951355,"930":-0.71047043800354,"931":1.7642147541046143,"932":-1.3141039609909058,"933":-1.1239689588546753,"934":1.5036327838897705,"935":0.07012644410133362,"936":-1.3844860792160034,"937":0.25268328189849854,"938":-3.4405343532562256,"939":-0.06591876596212387,"940":1.408614158630371,"941":-0.025356275960803032,"942":-1.8227795362472534,"943":-1.0799331665039062,"944":2.3617470264434814,"945":-0.864857017993927,"946":0.12854556739330292,"947":1.8714244365692139,"948":-0.3341456651687622,"949":-0.19978183507919312,"950":0.9132406115531921,"951":-1.5948373079299927,"952":1.0881855487823486,"953":1.5315803289413452,"954":1.014495611190796,"955":-1.6249465942382812,"956":0.559763491153717,"957":-1.3828562498092651,"958":-1.9171217679977417,"959":-0.6439027786254883,"960":0.8445796370506287,"961":3.9060781002044678,"962":0.4894266724586487,"963":0.5113917589187622,"964":0.10076494514942169,"965":0.5907617211341858,"966":-0.8577254414558411,"967":1.12964928150177,"968":1.883583903312683,"969":-1.436105728149414,"970":-0.9088181257247925,"971":-0.1870611608028412,"972":-0.40207988023757935,"973":-1.025208592414856,"974":-2.304426670074463,"975":1.5699641704559326,"976":-5.552840709686279,"977":1.353393316268921,"978":0.8859226107597351,"979":-0.6631701588630676,"980":-0.5298553705215454,"981":-0.7062608003616333,"982":0.4939662218093872,"983":1.3222812414169312,"984":-0.6703870892524719,"985":0.05386586859822273,"986":1.3399174213409424,"987":-7.458246231079102,"988":-1.6319671869277954,"989":-0.8125790953636169,"990":2.8478732109069824,"991":-2.2383737564086914,"992":-0.04596704989671707,"993":-7.01915168762207,"994":0.43187275528907776,"995":0.9193805456161499,"996":-0.2227969616651535,"997":0.49717599153518677,"998":-0.05512269586324692,"999":0.5584206581115723,"1000":0.7990784645080566,"1001":-1.0897804498672485,"1002":0.6009095311164856,"1003":-0.2049291431903839,"1004":0.41049301624298096,"1005":-0.6677129864692688,"1006":-1.9195971488952637,"1007":-1.3334559202194214,"1008":-0.2707938253879547,"1009":-0.7842149138450623,"1010":1.2408720254898071,"1011":1.911686897277832,"1012":2.274745225906372,"1013":1.6304477453231812,"1014":1.652612566947937,"1015":0.5676353573799133,"1016":-3.196213960647583,"1017":1.1447842121124268,"1018":1.5169790983200073,"1019":0.06790734082460403,"1020":-1.231487512588501,"1021":1.1129636764526367,"1022":1.0097901821136475,"1023":-0.299862265586853,"1024":1.6392043828964233,"1025":-0.4155362546443939,"1026":1.2419744729995728,"1027":-1.4133970737457275,"1028":-0.644132673740387,"1029":0.5366119742393494,"1030":1.4335705041885376,"1031":-1.7596924304962158,"1032":0.4385429620742798,"1033":0.03659156709909439,"1034":-1.266899585723877,"1035":0.2371455729007721,"1036":0.5665357112884521,"1037":0.7787368297576904,"1038":-2.6060991287231445,"1039":0.8728353381156921,"1040":-0.21274761855602264,"1041":1.1358425617218018,"1042":-0.012593906372785568,"1043":-0.889735996723175,"1044":-0.8794095516204834,"1045":-1.0516636371612549,"1046":-0.88069748878479,"1047":-1.4616436958312988,"1048":-3.5914289951324463,"1049":-0.09314645081758499,"1050":-0.5405760407447815,"1051":-1.0854394435882568,"1052":-2.08712100982666,"1053":-1.934187650680542,"1054":0.5383617877960205,"1055":1.0901944637298584,"1056":-1.0875221490859985,"1057":0.7215377688407898,"1058":-0.2957994341850281,"1059":1.6832036972045898,"1060":1.2838292121887207,"1061":4.927987098693848,"1062":2.952784299850464,"1063":-2.7882468700408936,"1064":-0.8047942519187927,"1065":-2.2018065452575684,"1066":-1.8245649337768555,"1067":-2.18947696685791,"1068":-2.251368284225464,"1069":2.439789056777954,"1070":-2.2709555625915527,"1071":2.67496657371521,"1072":-0.6312589049339294,"1073":0.529417872428894,"1074":2.0423214435577393,"1075":1.9332425594329834,"1076":0.4368523359298706,"1077":-1.2347877025604248,"1078":-0.0737311840057373,"1079":-1.5184391736984253,"1080":-4.833066463470459,"1081":1.902214527130127,"1082":4.257676601409912,"1083":-2.077061176300049,"1084":-2.9549031257629395,"1085":-1.1615616083145142,"1086":-1.518607497215271,"1087":1.814784049987793,"1088":-4.928204536437988,"1089":0.6923046708106995,"1090":-2.0168914794921875,"1091":1.5336953401565552,"1092":0.9967700242996216,"1093":4.040871620178223,"1094":-1.5223873853683472,"1095":-0.6492191553115845,"1096":2.998621940612793,"1097":1.5712672472000122,"1098":0.652454674243927,"1099":2.4153318405151367,"1100":-0.9097313284873962,"1101":-1.1346614360809326,"1102":1.4972338676452637,"1103":-0.6023053526878357,"1104":-0.849831223487854,"1105":-0.8463053107261658,"1106":-0.9960542321205139,"1107":-1.8098682165145874,"1108":-0.8860973119735718,"1109":1.2702109813690186,"1110":-0.31796836853027344,"1111":-0.4414725601673126,"1112":-0.7963476777076721,"1113":-0.5660865902900696,"1114":-0.09756498038768768,"1115":1.8757781982421875,"1116":-0.5787514448165894,"1117":-1.0938924551010132,"1118":1.9283140897750854,"1119":0.12275571376085281,"1120":-0.3749127686023712,"1121":-0.6633713841438293,"1122":-0.9844014644622803,"1123":0.7717728614807129,"1124":0.29680734872817993,"1125":0.06971149146556854,"1126":2.4737706184387207,"1127":2.8297719955444336,"1128":0.8632669448852539,"1129":-0.5928226113319397,"1130":1.7730937004089355,"1131":0.00418027862906456,"1132":0.9711031317710876,"1133":3.1777989864349365,"1134":0.6366294622421265,"1135":-0.5222181677818298,"1136":-2.1480488777160645,"1137":-1.1997936964035034,"1138":0.4449962079524994,"1139":0.43895265460014343,"1140":0.9581394791603088,"1141":1.3671005964279175,"1142":0.992004930973053,"1143":-1.669618844985962,"1144":-0.7879012823104858,"1145":0.2250392735004425,"1146":0.6111260652542114,"1147":-0.24427753686904907,"1148":-1.130152940750122,"1149":0.040314920246601105,"1150":1.3138360977172852,"1151":1.0287054777145386,"1152":3.104874849319458,"1153":-0.1687479466199875,"1154":1.622281789779663,"1155":-1.1711100339889526,"1156":1.3553874492645264,"1157":0.569841206073761,"1158":-1.5912567377090454,"1159":-1.078405499458313,"1160":1.0726656913757324,"1161":-0.9662802219390869,"1162":2.3560101985931396,"1163":-0.5733756422996521,"1164":-0.4643406271934509,"1165":0.7967217564582825,"1166":-0.33910098671913147,"1167":0.6426282525062561,"1168":0.047928500920534134,"1169":-0.2542766332626343,"1170":1.163334846496582,"1171":1.0930821895599365,"1172":-2.3879172801971436,"1173":1.0818383693695068,"1174":1.359882116317749,"1175":-2.1320815086364746,"1176":-0.14813777804374695,"1177":0.20386503636837006,"1178":0.5888274312019348,"1179":1.4052118062973022,"1180":-0.7773699164390564,"1181":2.398744583129883,"1182":-0.40295347571372986,"1183":0.8606776595115662,"1184":-1.7692346572875977,"1185":-0.41974252462387085,"1186":-0.7142112851142883,"1187":-1.2067581415176392,"1188":2.160343885421753,"1189":-0.16421036422252655,"1190":-1.1386476755142212,"1191":1.2451140880584717,"1192":-0.7156586647033691,"1193":-0.09998729825019836,"1194":-0.060272105038166046,"1195":1.222205400466919,"1196":2.4320480823516846,"1197":1.361586332321167,"1198":-1.0417498350143433,"1199":0.0309849102050066,"1200":0.15352481603622437,"1201":-0.45905420184135437,"1202":0.17068053781986237,"1203":-0.42406585812568665,"1204":-0.33320385217666626,"1205":0.742713212966919,"1206":1.365606427192688,"1207":-0.5178549289703369,"1208":0.03161534294486046,"1209":-0.2885327935218811,"1210":0.4007834494113922,"1211":-0.3721465766429901,"1212":-0.6038036346435547,"1213":0.14102454483509064,"1214":2.313136339187622,"1215":1.2248402833938599,"1216":-0.035039663314819336,"1217":1.401944875717163,"1218":-1.5648696422576904,"1219":-0.8215514421463013,"1220":-0.9083781242370605,"1221":0.773604691028595,"1222":1.390357255935669,"1223":2.4163413047790527,"1224":-0.26875561475753784,"1225":0.17265185713768005,"1226":-1.057969093322754,"1227":0.745834231376648,"1228":-0.4370232820510864,"1229":1.2760435342788696,"1230":0.8855078816413879,"1231":0.6859678030014038,"1232":-1.6633535623550415,"1233":-0.25189992785453796,"1234":1.0417793989181519,"1235":0.04844174161553383,"1236":0.11760178953409195,"1237":1.0085440874099731,"1238":-0.06031590700149536,"1239":-1.2919703722000122,"1240":-1.5481222867965698,"1241":0.18005573749542236,"1242":0.837755024433136,"1243":-0.11306409537792206,"1244":1.5814752578735352,"1245":-1.26810622215271,"1246":0.7147427797317505,"1247":-2.5018317699432373,"1248":1.6588666439056396,"1249":-1.2744446992874146,"1250":0.004162793513387442,"1251":0.7381641864776611,"1252":0.21152928471565247,"1253":-1.6658923625946045,"1254":0.49392369389533997,"1255":-0.6963101625442505,"1256":0.2945253252983093,"1257":1.5654315948486328,"1258":-0.5240021347999573,"1259":0.0685468465089798,"1260":0.5958766937255859,"1261":-0.9426265954971313,"1262":0.1667817234992981,"1263":-0.608188271522522,"1264":-1.0693055391311646,"1265":-1.705227255821228,"1266":0.7609196901321411,"1267":2.4710371494293213,"1268":-0.5583545565605164,"1269":1.498430609703064,"1270":0.6981879472732544,"1271":-1.121028184890747,"1272":-1.5425468683242798,"1273":0.18816834688186646,"1274":1.3804360628128052,"1275":0.8442219495773315,"1276":-0.25007981061935425,"1277":-0.33391496539115906,"1278":0.4701191186904907,"1279":0.5394970178604126,"1280":-0.19408707320690155,"1281":-0.8372485041618347,"1282":1.158810019493103,"1283":0.916755199432373,"1284":0.746482253074646,"1285":0.7244716882705688,"1286":0.6109996438026428,"1287":-2.119744062423706,"1288":-2.3346939086914062,"1289":0.946691632270813,"1290":0.5893412828445435,"1291":2.660574197769165,"1292":-0.3361424505710602,"1293":0.24762535095214844,"1294":-1.4588879346847534,"1295":-1.5129307508468628,"1296":0.11285720765590668,"1297":0.6310514211654663,"1298":2.289109945297241,"1299":-1.6675236225128174,"1300":0.7275469303131104,"1301":0.45362207293510437,"1302":-0.5950823426246643,"1303":-0.17978200316429138,"1304":-0.372411847114563,"1305":0.12232575565576553,"1306":-1.7912367582321167,"1307":0.4896472990512848,"1308":-0.9013155102729797,"1309":-0.4818083643913269,"1310":-0.19166196882724762,"1311":1.0843149423599243,"1312":0.6007837057113647,"1313":0.8022946119308472,"1314":2.760345935821533,"1315":2.0946297645568848,"1316":0.4010002911090851,"1317":-1.3164877891540527,"1318":-1.2743868827819824,"1319":-1.304550051689148,"1320":-0.592292070388794,"1321":-0.33507058024406433,"1322":2.1360464096069336,"1323":2.3072540760040283,"1324":2.296405792236328,"1325":-0.02201010286808014,"1326":-0.12190695852041245,"1327":0.06251710653305054,"1328":-1.772335171699524,"1329":-0.6457830667495728,"1330":1.7887402772903442,"1331":0.7084378600120544,"1332":-0.20670199394226074,"1333":-0.9320710301399231,"1334":-0.11880902200937271,"1335":-0.6293334364891052,"1336":-5.292579650878906,"1337":2.2661259174346924,"1338":-0.20905828475952148,"1339":3.396052360534668,"1340":1.1945968866348267,"1341":4.587838172912598,"1342":-4.692704200744629,"1343":0.3986354470252991,"1344":0.9040707349777222,"1345":4.045935153961182,"1346":1.239397644996643,"1347":-1.6497795581817627,"1348":0.2691553831100464,"1349":-1.8717899322509766,"1350":0.2066119760274887,"1351":0.8019830584526062,"1352":4.617812156677246,"1353":1.9525903463363647,"1354":-1.2548058032989502,"1355":-2.04704213142395,"1356":-0.19426366686820984,"1357":-0.9196888208389282,"1358":-3.9868133068084717,"1359":0.7094263434410095,"1360":-0.37175217270851135,"1361":-2.5251340866088867,"1362":0.5361918210983276,"1363":-1.568809151649475,"1364":-0.3190186023712158,"1365":-3.6898140907287598,"1366":0.2877049744129181,"1367":1.2826319932937622,"1368":0.936801016330719,"1369":3.480947971343994,"1370":1.4772684574127197,"1371":0.029066726565361023,"1372":-6.1931986808776855,"1373":-1.5266574621200562,"1374":0.5165491700172424,"1375":-0.6389273405075073,"1376":0.14085152745246887,"1377":-1.4869048595428467,"1378":-1.8375920057296753,"1379":2.415825605392456,"1380":0.7109779715538025,"1381":-0.06257742643356323,"1382":0.1424940973520279,"1383":-2.2812297344207764,"1384":-0.2168320268392563,"1385":1.298824429512024,"1386":-0.24304088950157166,"1387":1.7931734323501587,"1388":0.4387015104293823,"1389":-0.28932082653045654,"1390":1.0578186511993408,"1391":0.9581400156021118,"1392":0.32037460803985596,"1393":2.848301649093628,"1394":-2.5364468097686768,"1395":0.034169334918260574,"1396":-1.5792527198791504,"1397":0.8007494807243347,"1398":-0.8941709995269775,"1399":3.029900074005127,"1400":-3.6197967529296875,"1401":1.0729714632034302,"1402":0.9475974440574646,"1403":1.080021858215332,"1404":0.5816998481750488,"1405":-2.6460938453674316,"1406":3.437861919403076,"1407":1.263635277748108,"1408":-1.5319241285324097,"1409":-1.3810583353042603,"1410":1.5077459812164307,"1411":2.9889583587646484,"1412":2.9665303230285645,"1413":-0.8765124678611755,"1414":-3.478048086166382,"1415":0.3688972294330597,"1416":-0.8029805421829224,"1417":2.2943644523620605,"1418":-3.436077117919922,"1419":2.193528652191162,"1420":-4.525571823120117,"1421":4.032652854919434,"1422":1.0741794109344482,"1423":-3.0178351402282715,"1424":-1.1718801259994507,"1425":4.01772403717041,"1426":2.81091570854187,"1427":-0.9829530715942383,"1428":-1.1417114734649658,"1429":-1.2487952709197998,"1430":-4.803356170654297,"1431":0.601765513420105,"1432":-1.1699938774108887,"1433":5.833024024963379,"1434":-2.0608601570129395,"1435":0.42282193899154663,"1436":-2.4833598136901855,"1437":-0.8908795714378357,"1438":-2.582058906555176,"1439":0.5317424535751343,"1440":8.609146118164062,"1441":-0.900840699672699,"1442":3.391630172729492,"1443":-3.547839879989624,"1444":-1.4045569896697998,"1445":9.169589042663574,"1446":2.1540229320526123,"1447":2.057415246963501,"1448":-4.891180038452148,"1449":-3.4052562713623047,"1450":-3.678546905517578,"1451":-2.1068596839904785,"1452":-0.30820924043655396,"1453":-1.2116585969924927,"1454":12.638914108276367,"1455":7.237273693084717,"1456":7.646913051605225,"1457":-1.0024415254592896,"1458":2.4904143810272217,"1459":3.7808403968811035,"1460":0.7425029277801514,"1461":-2.984339475631714,"1462":-4.937480926513672,"1463":-0.6531665325164795,"1464":3.1731135845184326,"1465":1.6296271085739136,"1466":7.849511623382568,"1467":-2.0900306701660156,"1468":0.6205729246139526,"1469":1.904906988143921,"1470":0.510801374912262,"1471":-5.483206272125244,"1472":2.9725520610809326,"1473":-4.281974792480469,"1474":2.3175551891326904,"1475":6.136239051818848,"1476":3.6727888584136963,"1477":-0.4975060522556305,"1478":1.3508583307266235,"1479":-0.49478086829185486,"1480":2.3005642890930176,"1481":1.9041545391082764,"1482":-10.311355590820312,"1483":-2.3824808597564697,"1484":-0.6093242764472961,"1485":-1.1601608991622925,"1486":-1.5708287954330444,"1487":-0.5816158056259155,"1488":-2.610189437866211,"1489":0.17391018569469452,"1490":-3.2320713996887207,"1491":2.1803503036499023,"1492":2.2204573154449463,"1493":-2.053168296813965,"1494":2.132255792617798,"1495":-1.4096581935882568,"1496":-1.3414579629898071,"1497":1.80743408203125,"1498":-3.095200777053833,"1499":-2.2789716720581055,"1500":0.37823399901390076,"1501":1.9199341535568237,"1502":-1.332067847251892,"1503":-1.9547929763793945,"1504":2.8993303775787354,"1505":-1.481560230255127,"1506":1.619858980178833,"1507":-0.5703820586204529,"1508":0.31184065341949463,"1509":-2.9521570205688477,"1510":1.1460152864456177,"1511":-1.407701015472412,"1512":-1.0166089534759521,"1513":-0.7873387336730957,"1514":1.1165446043014526,"1515":-4.962024688720703,"1516":3.1066501140594482,"1517":-0.29485344886779785,"1518":-1.637162446975708,"1519":1.7226190567016602,"1520":2.2724883556365967,"1521":-1.7940603494644165,"1522":-1.6306228637695312,"1523":-1.8316024541854858,"1524":0.03945981711149216,"1525":3.534184217453003,"1526":2.5878419876098633,"1527":2.4986956119537354,"1528":-1.2097234725952148,"1529":-1.4647440910339355,"1530":3.79732346534729,"1531":-1.5555802583694458,"1532":1.362931489944458,"1533":2.4889211654663086,"1534":2.8684797286987305,"1535":-4.553972244262695,"1536":-2.261589765548706,"1537":-4.103011131286621,"1538":0.4652860164642334,"1539":-0.10301057994365692,"1540":0.6808985471725464,"1541":2.0494463443756104,"1542":0.9960014820098877,"1543":1.0094956159591675,"1544":-1.997766137123108,"1545":-1.2493047714233398,"1546":0.4873962700366974,"1547":-4.65504789352417,"1548":0.5239452719688416,"1549":0.4869731068611145,"1550":-0.008920992724597454,"1551":-0.14125505089759827,"1552":0.818382203578949,"1553":-0.06424789875745773,"1554":0.5228691697120667,"1555":0.9149210453033447,"1556":1.0227766036987305,"1557":-0.32596898078918457,"1558":1.692846417427063,"1559":-0.4455694854259491,"1560":0.9331186413764954,"1561":-0.12150919437408447,"1562":-0.0811438113451004,"1563":0.5304726362228394,"1564":-0.38109537959098816,"1565":-1.9408327341079712,"1566":2.582000970840454,"1567":-0.19342009723186493,"1568":-0.1386985182762146,"1569":1.3256381750106812,"1570":-0.870041012763977,"1571":-0.8617724180221558,"1572":0.3299793601036072,"1573":1.8286101818084717,"1574":-3.3501875400543213,"1575":0.985970675945282,"1576":3.4596567153930664,"1577":0.7648088335990906,"1578":-1.30165433883667,"1579":0.12893204391002655,"1580":0.4771036207675934,"1581":-3.0945591926574707,"1582":2.70357608795166,"1583":-2.553147315979004,"1584":0.31650611758232117,"1585":1.3019107580184937,"1586":1.3401893377304077,"1587":0.5884149074554443,"1588":-0.12473706156015396,"1589":-2.3254199028015137,"1590":1.4835286140441895,"1591":-0.39022278785705566,"1592":-4.612146377563477,"1593":-0.9089194536209106,"1594":-2.456899881362915,"1595":-1.6046658754348755,"1596":0.19050860404968262,"1597":-1.2397936582565308,"1598":-1.6639405488967896,"1599":1.8742913007736206,"1600":2.0775482654571533,"1601":-1.2905784845352173,"1602":-0.7483680248260498,"1603":-0.1926601529121399,"1604":0.3916258215904236,"1605":-0.9461426734924316,"1606":0.18926401436328888,"1607":0.287984162569046,"1608":1.165164589881897,"1609":-0.4801466763019562,"1610":2.0703060626983643,"1611":1.3466798067092896,"1612":0.457693874835968,"1613":1.7854503393173218,"1614":0.7043022513389587,"1615":0.014037207700312138,"1616":-0.1262737363576889,"1617":-1.9847967624664307,"1618":0.3592749834060669,"1619":0.7072597146034241,"1620":-0.2389117330312729,"1621":1.5308650732040405,"1622":0.09101134538650513,"1623":0.14814408123493195,"1624":-0.6284391283988953,"1625":0.09370677918195724,"1626":2.293860912322998,"1627":1.1826603412628174,"1628":-1.266050934791565,"1629":-2.0638821125030518,"1630":1.823054552078247,"1631":0.12290061265230179,"1632":-0.23684574663639069,"1633":-1.8893303871154785,"1634":0.04476241022348404,"1635":2.8216891288757324,"1636":0.2846147418022156,"1637":0.5227742195129395,"1638":-1.5707379579544067,"1639":-2.0255367755889893,"1640":-0.777055025100708,"1641":0.006780439056456089,"1642":0.3845716416835785,"1643":0.5462520718574524,"1644":-0.3471563756465912,"1645":0.4044332504272461,"1646":1.6283891201019287,"1647":-1.4697113037109375,"1648":-0.377882719039917,"1649":0.33471208810806274,"1650":0.8435559272766113,"1651":-3.6586391925811768,"1652":7.829264163970947,"1653":3.2063276767730713,"1654":3.494781494140625,"1655":8.504934310913086,"1656":2.4084465503692627,"1657":4.576746940612793,"1658":0.36803218722343445,"1659":-12.090630531311035,"1660":-2.105242967605591,"1661":-1.0805599689483643,"1662":7.2241740226745605,"1663":-3.862081527709961,"1664":2.29266357421875,"1665":3.8979849815368652,"1666":8.515719413757324,"1667":5.996593475341797,"1668":0.029309377074241638,"1669":2.4879000186920166,"1670":-0.4181666076183319,"1671":-1.7355877161026,"1672":3.444502115249634,"1673":-0.9557158946990967,"1674":7.955506801605225,"1675":-2.3144302368164062,"1676":1.846721887588501,"1677":2.0623748302459717,"1678":-1.5052192211151123,"1679":0.6847862005233765,"1680":-0.7847853302955627,"1681":5.2484259605407715,"1682":-0.7408027648925781,"1683":-3.3175907135009766,"1684":0.7579715251922607,"1685":3.3335750102996826,"1686":3.1226229667663574,"1687":3.6176209449768066,"1688":-1.9454116821289062,"1689":-1.8051506280899048,"1690":3.1956522464752197,"1691":9.259437561035156,"1692":4.99382209777832,"1693":-5.102005958557129,"1694":-0.15082256495952606,"1695":-5.551669597625732,"1696":6.488916873931885,"1697":-2.049743413925171,"1698":-2.385725975036621,"1699":3.7719078063964844,"1700":-1.1426810026168823,"1701":2.6174960136413574,"1702":1.4237501621246338,"1703":3.1636171340942383,"1704":-0.44086363911628723,"1705":4.470345973968506,"1706":-7.519152641296387,"1707":-2.767700433731079,"1708":-4.989872932434082,"1709":-4.630149841308594,"1710":-5.153014183044434,"1711":0.025440245866775513,"1712":-7.3263983726501465,"1713":-1.8560718297958374,"1714":5.66942024230957,"1715":-6.6099138259887695,"1716":0.42219752073287964,"1717":1.333451747894287,"1718":3.4535152912139893,"1719":-4.637629508972168,"1720":3.5020992755889893,"1721":-4.997234344482422,"1722":1.7334874868392944,"1723":1.3142452239990234,"1724":0.09473603963851929,"1725":-3.330369710922241,"1726":-4.5565409660339355,"1727":-3.4066550731658936,"1728":1.4606610536575317,"1729":6.748960971832275,"1730":-3.3940939903259277,"1731":5.541982650756836,"1732":3.6631033420562744,"1733":4.437619209289551,"1734":5.648120880126953,"1735":0.9240138530731201,"1736":2.8349995613098145,"1737":-2.9596872329711914,"1738":6.6340651512146,"1739":1.7491375207901,"1740":2.6450624465942383,"1741":7.403116226196289,"1742":-0.2781568467617035,"1743":-5.143611907958984,"1744":-3.0690197944641113,"1745":-1.7384376525878906,"1746":-5.197992324829102,"1747":2.753765344619751,"1748":-1.5812772512435913,"1749":1.5245245695114136,"1750":6.359576225280762,"1751":-1.7968803644180298,"1752":-3.8841896057128906,"1753":4.025146484375,"1754":-1.6734364032745361,"1755":6.0410475730896,"1756":-0.7105496525764465,"1757":-8.497296333312988,"1758":2.6715567111968994,"1759":-1.6898233890533447,"1760":1.5678752660751343,"1761":1.0426709651947021,"1762":2.4540271759033203,"1763":-0.12599246203899384,"1764":0.34664982557296753,"1765":-2.9864559173583984,"1766":0.6422940492630005,"1767":-1.9090172052383423,"1768":-0.45933642983436584,"1769":-0.7810099720954895,"1770":1.1615588665008545,"1771":0.3054691255092621,"1772":2.4094626903533936,"1773":-1.58309006690979,"1774":-0.6887975931167603,"1775":-1.3361248970031738,"1776":-2.473341703414917,"1777":-1.8792623281478882,"1778":1.2479451894760132,"1779":1.2542239427566528,"1780":2.920625925064087,"1781":-0.01764095574617386,"1782":-2.3421449661254883,"1783":-0.9496232271194458,"1784":1.6838246583938599,"1785":-0.7925572991371155,"1786":2.6854701042175293,"1787":1.7877596616744995,"1788":-1.0286426544189453,"1789":-0.44109073281288147,"1790":-0.4229486286640167,"1791":-2.520800828933716,"1792":2.191927433013916,"1793":-1.3609699010849,"1794":0.2833922803401947,"1795":-1.4816765785217285,"1796":1.5074751377105713,"1797":-2.774813413619995,"1798":-0.9623264670372009,"1799":1.2905998229980469,"1800":3.557255744934082,"1801":-4.277070045471191,"1802":3.6206698417663574,"1803":-1.3781603574752808,"1804":1.3220081329345703,"1805":-1.6784976720809937,"1806":0.3831997513771057,"1807":0.6868556141853333,"1808":-0.565342903137207,"1809":1.4441485404968262,"1810":2.0517961978912354,"1811":-0.3606676161289215,"1812":-0.15046685934066772,"1813":-3.002790927886963,"1814":1.9055336713790894,"1815":-0.1497499793767929,"1816":-2.3628475666046143,"1817":-2.7533938884735107,"1818":-1.0988373756408691,"1819":-1.874168872833252,"1820":0.7821968793869019,"1821":-1.482155203819275,"1822":-1.074639081954956,"1823":-0.16676820814609528,"1824":3.214421033859253,"1825":2.9715473651885986,"1826":-0.7169128656387329,"1827":3.265913724899292,"1828":-0.7486398816108704,"1829":-1.478264331817627,"1830":1.7548035383224487,"1831":2.273148536682129,"1832":0.22398222982883453,"1833":-0.004721787758171558,"1834":1.6591253280639648,"1835":0.5408875942230225,"1836":-0.5144885778427124,"1837":-0.19010066986083984,"1838":-0.778955340385437,"1839":2.197087049484253,"1840":-0.0005388591671362519,"1841":1.7655071020126343,"1842":0.28359609842300415,"1843":-1.0777561664581299,"1844":-1.5944703817367554,"1845":-1.453059196472168,"1846":0.281717449426651,"1847":0.6306520700454712,"1848":4.728836536407471,"1849":2.348872423171997,"1850":-0.4190201461315155,"1851":3.5489888191223145,"1852":-0.09393518418073654,"1853":0.3885793387889862,"1854":-2.418138265609741,"1855":1.7456294298171997,"1856":-0.25164851546287537,"1857":1.0830508470535278,"1858":-2.083984375,"1859":0.37668657302856445,"1860":4.317502975463867,"1861":0.9644184112548828,"1862":-1.3385865688323975,"1863":-1.5106678009033203,"1864":1.7312450408935547,"1865":0.963902473449707,"1866":1.4146201610565186,"1867":-1.6355501413345337,"1868":0.20018942654132843,"1869":-1.4037952423095703,"1870":1.0328152179718018,"1871":1.1229265928268433,"1872":-0.4279165267944336,"1873":-4.894189834594727,"1874":2.8955862522125244,"1875":1.7317750453948975,"1876":0.7687772512435913,"1877":-2.0976409912109375,"1878":-1.6527683734893799,"1879":-5.825744152069092,"1880":0.6393858790397644,"1881":0.5555222630500793,"1882":1.1110434532165527,"1883":2.0690395832061768,"1884":1.5515283346176147,"1885":-0.4183862805366516,"1886":2.8078505992889404,"1887":1.7340800762176514,"1888":4.7645721435546875,"1889":0.7084207534790039,"1890":0.731747031211853,"1891":0.6852933764457703,"1892":-3.193661689758301,"1893":1.342156171798706,"1894":1.8168861865997314,"1895":-1.3398710489273071,"1896":-1.6182332038879395,"1897":-1.6732090711593628,"1898":1.6398190259933472,"1899":1.81113862991333,"1900":-0.09773527830839157,"1901":2.2355282306671143,"1902":-0.630144476890564,"1903":-0.8500199317932129,"1904":0.3178010582923889,"1905":2.7553048133850098,"1906":0.2646263539791107,"1907":1.8879656791687012,"1908":0.5091493725776672,"1909":3.4297263622283936,"1910":3.8079144954681396,"1911":-3.953289270401001,"1912":-0.7173506021499634,"1913":-1.3652092218399048,"1914":-2.919215440750122,"1915":-1.342463731765747,"1916":-0.22830745577812195,"1917":-0.5345008373260498,"1918":-0.2726142406463623,"1919":-3.0340585708618164,"1920":1.5459541082382202,"1921":1.3861517906188965,"1922":-2.8892934322357178,"1923":0.7472324967384338,"1924":1.3641576766967773,"1925":1.190691590309143,"1926":-3.4898173809051514,"1927":-1.343602180480957,"1928":-0.9309890866279602,"1929":2.086251974105835,"1930":1.887890100479126,"1931":0.9127845168113708,"1932":2.13959002494812,"1933":2.1184933185577393,"1934":-2.451573371887207,"1935":0.05589603632688522,"1936":-0.21931682527065277,"1937":0.926236093044281,"1938":0.37485775351524353,"1939":-2.181790590286255,"1940":-3.813826084136963,"1941":-1.132179617881775,"1942":0.3385554254055023,"1943":2.737175703048706,"1944":-0.34049105644226074,"1945":1.2230720520019531,"1946":0.21228161454200745,"1947":-2.3327903747558594,"1948":-1.7331490516662598,"1949":-0.2667725086212158,"1950":-2.3935112953186035,"1951":-0.8452915549278259,"1952":1.262287974357605,"1953":-1.4826908111572266,"1954":4.277351379394531,"1955":2.438899040222168,"1956":-0.1383180469274521,"1957":0.8980183601379395,"1958":-1.4365801811218262,"1959":2.362975597381592,"1960":2.4842824935913086,"1961":1.9666471481323242,"1962":-3.9094552993774414,"1963":1.7081859111785889,"1964":-2.1158854961395264,"1965":0.7406178712844849,"1966":-2.9337871074676514,"1967":-2.8453421592712402,"1968":-0.5329195261001587,"1969":-1.4942858219146729,"1970":3.1221392154693604,"1971":1.259202241897583,"1972":1.679337978363037,"1973":-1.3749724626541138,"1974":-3.90250301361084,"1975":0.4158160984516144,"1976":-0.42671874165534973,"1977":-4.416641712188721,"1978":-2.0587120056152344,"1979":-1.1120219230651855,"1980":-1.5171282291412354,"1981":0.7041104435920715,"1982":-3.7248713970184326,"1983":-3.5387122631073,"1984":-2.3052077293395996,"1985":-1.5548524856567383,"1986":-5.4005842208862305,"1987":1.8042361736297607,"1988":-0.4273504614830017,"1989":1.3730261325836182,"1990":-1.0724140405654907,"1991":1.3591207265853882,"1992":-1.8412196636199951,"1993":-0.26923614740371704,"1994":-0.5097072720527649,"1995":-3.026548385620117,"1996":-1.744560956954956,"1997":0.1671646684408188,"1998":-3.655010938644409,"1999":-2.5556087493896484,"2000":-1.606555700302124,"2001":0.19046851992607117,"2002":1.9396122694015503,"2003":-2.028507709503174,"2004":-0.016434568911790848,"2005":-1.2905489206314087,"2006":-0.7446231245994568,"2007":1.6139720678329468,"2008":-0.12570928037166595,"2009":1.6152520179748535,"2010":-3.2625925540924072,"2011":-1.1516157388687134,"2012":2.3688597679138184,"2013":-1.8237742185592651,"2014":0.8385180234909058,"2015":-2.0659313201904297,"2016":-1.3851065635681152,"2017":0.9446235299110413,"2018":-0.36196303367614746,"2019":-0.04608357325196266,"2020":1.9094537496566772,"2021":2.14017653465271,"2022":-0.8550087213516235,"2023":2.0109198093414307,"2024":-1.8643873929977417,"2025":-0.3619711697101593,"2026":1.9124480485916138,"2027":1.1411693096160889,"2028":-2.7765724658966064,"2029":-0.3373308777809143,"2030":0.7343819737434387,"2031":-2.320554494857788,"2032":-0.2734081745147705,"2033":-0.6315974593162537,"2034":-4.105217933654785,"2035":0.3451496362686157,"2036":-1.2190825939178467,"2037":-1.0586457252502441,"2038":1.3132859468460083,"2039":-0.683273196220398,"2040":1.013952374458313,"2041":0.31324848532676697,"2042":-0.6216745376586914,"2043":0.9448421597480774,"2044":0.7897617816925049,"2045":0.8942810297012329,"2046":0.9245984554290771,"2047":-0.7401092052459717,"2048":1.303565502166748,"2049":-0.9027811884880066,"2050":-1.0513278245925903,"2051":0.25474947690963745,"2052":-1.6116193532943726,"2053":0.5471931099891663,"2054":2.809685230255127,"2055":0.9145421385765076,"2056":-0.030278200283646584,"2057":-1.163153886795044,"2058":0.10178826749324799,"2059":-0.8943316340446472,"2060":-0.9151254892349243,"2061":0.6851258873939514,"2062":1.0093157291412354,"2063":-3.040677547454834,"2064":0.4319555461406708,"2065":0.06434877961874008,"2066":-1.1273287534713745,"2067":0.8919677138328552,"2068":-0.7962234020233154,"2069":-1.7785725593566895,"2070":1.9315588474273682,"2071":0.4514716565608978,"2072":-1.7955836057662964,"2073":1.55936598777771,"2074":-3.0676448345184326,"2075":1.7214183807373047,"2076":2.3431613445281982,"2077":-0.24138231575489044,"2078":-0.6771439909934998,"2079":-1.1675692796707153,"2080":-3.487182855606079,"2081":-0.22824472188949585,"2082":-0.9607328176498413,"2083":1.3002357482910156,"2084":0.9310268759727478,"2085":-1.102439284324646,"2086":0.09710725396871567,"2087":-3.6014201641082764,"2088":-2.9082717895507812,"2089":1.3809142112731934,"2090":-0.26443952322006226,"2091":1.0239014625549316,"2092":-0.7751264572143555,"2093":-0.002983848564326763,"2094":2.8525593280792236,"2095":-1.9753799438476562,"2096":0.6040722727775574,"2097":0.009681067429482937,"2098":2.159310817718506,"2099":0.6880651712417603,"2100":0.5177910923957825,"2101":0.6888347268104553,"2102":3.1953847408294678,"2103":-0.1553865224123001,"2104":-1.0730421543121338,"2105":-1.4795974493026733,"2106":-4.419862270355225,"2107":-1.3751139640808105,"2108":-2.3631672859191895,"2109":3.300940752029419,"2110":0.7639443874359131,"2111":0.31320977210998535,"2112":0.3539431393146515,"2113":1.4244539737701416,"2114":1.4059048891067505,"2115":0.37709829211235046,"2116":-1.7136198282241821,"2117":2.111311197280884,"2118":-1.3296114206314087,"2119":-0.5748389959335327,"2120":-0.8668756484985352,"2121":0.8219324946403503,"2122":-1.0697740316390991,"2123":-2.069578170776367,"2124":1.6793127059936523,"2125":-3.23748779296875,"2126":0.2664962410926819,"2127":-0.7868735790252686,"2128":-6.8880181312561035,"2129":0.9432329535484314,"2130":-0.1501234918832779,"2131":2.4215340614318848,"2132":-0.11523473262786865,"2133":-0.6327465176582336,"2134":-0.35057899355888367,"2135":-1.397336721420288,"2136":2.504909038543701,"2137":1.439724087715149,"2138":-3.2064015865325928,"2139":-2.822420120239258,"2140":2.5160348415374756,"2141":-2.9622888565063477,"2142":1.0301769971847534,"2143":-3.3111438751220703,"2144":0.27398455142974854,"2145":0.719851553440094,"2146":1.792910099029541,"2147":1.6651524305343628,"2148":3.106135129928589,"2149":0.3230575621128082,"2150":1.9507461786270142,"2151":-1.9653029441833496,"2152":4.189314365386963,"2153":0.9939542412757874,"2154":3.7927210330963135,"2155":0.04055601358413696,"2156":1.1665719747543335,"2157":0.9339799880981445,"2158":3.2309770584106445,"2159":1.1131470203399658,"2160":-1.6257083415985107,"2161":2.987440347671509,"2162":1.6347390413284302,"2163":1.0838452577590942,"2164":4.223207473754883,"2165":5.7615966796875,"2166":-2.4108667373657227,"2167":-7.714711666107178,"2168":1.2880953550338745,"2169":2.793916702270508,"2170":0.754849374294281,"2171":-1.658761739730835,"2172":1.5971744060516357,"2173":-0.9998510479927063,"2174":-1.6545151472091675,"2175":1.58430016040802,"2176":-3.318760395050049,"2177":3.837071657180786,"2178":1.5537220239639282,"2179":1.8957443237304688,"2180":-2.2005205154418945,"2181":1.4763333797454834,"2182":-2.5691616535186768,"2183":-2.1635313034057617,"2184":-1.051207423210144,"2185":2.994079351425171,"2186":-0.6359583735466003,"2187":-3.328657627105713,"2188":3.0913352966308594,"2189":-0.1208154633641243,"2190":7.223559379577637,"2191":5.462390422821045,"2192":5.16822624206543,"2193":-0.931404709815979,"2194":3.151735305786133,"2195":-3.290025234222412,"2196":1.5419983863830566,"2197":-3.7965316772460938,"2198":-0.5963281393051147,"2199":-2.0939230918884277,"2200":-2.982637643814087,"2201":-4.755249500274658,"2202":-5.127419471740723,"2203":-16.834428787231445,"2204":9.716832160949707,"2205":-7.617392539978027,"2206":6.909862518310547,"2207":-10.141124725341797,"2208":-2.682903528213501,"2209":-7.9978766441345215,"2210":1.6536149978637695,"2211":-1.767854928970337,"2212":11.520792961120605,"2213":-10.538472175598145,"2214":7.795109272003174,"2215":5.559669494628906,"2216":5.526321887969971,"2217":2.2712457180023193,"2218":1.6752386093139648,"2219":-2.186795473098755,"2220":3.8358278274536133,"2221":-0.17177848517894745,"2222":8.981019020080566,"2223":-0.03326331079006195,"2224":1.311094880104065,"2225":10.02054500579834,"2226":3.9325835704803467,"2227":-5.942008972167969,"2228":-0.043070558458566666,"2229":1.3064693212509155,"2230":-3.6446568965911865,"2231":-1.138827919960022,"2232":-5.671841621398926,"2233":13.352806091308594,"2234":-7.355801582336426,"2235":-4.3173418045043945,"2236":5.5730881690979,"2237":-5.416196823120117,"2238":-2.688283920288086,"2239":6.8550591468811035,"2240":13.63009262084961,"2241":-4.974058151245117,"2242":-8.190203666687012,"2243":-5.285903453826904,"2244":-9.661687850952148,"2245":-6.222323417663574,"2246":4.34791374206543,"2247":-3.7493011951446533,"2248":10.333138465881348,"2249":-4.955418109893799,"2250":-1.2726987600326538,"2251":-1.2139506340026855,"2252":-8.087906837463379,"2253":5.715753078460693,"2254":0.9554004073143005,"2255":5.650693893432617,"2256":-2.3505518436431885,"2257":-2.517249345779419,"2258":-3.4094512462615967,"2259":-4.159163475036621,"2260":6.744115352630615,"2261":-3.0642364025115967,"2262":-1.460184931755066,"2263":-6.618592739105225,"2264":-1.410365343093872,"2265":-0.6712462306022644,"2266":5.391063213348389,"2267":3.8029558658599854,"2268":-1.4740419387817383,"2269":3.1142256259918213,"2270":-1.7660795450210571,"2271":-7.370019912719727,"2272":-7.073129177093506,"2273":2.7339632511138916,"2274":2.708220958709717,"2275":-0.6272107362747192,"2276":-1.501091718673706,"2277":-3.539691686630249,"2278":-3.376021146774292,"2279":0.9032259583473206,"2280":1.858922004699707,"2281":9.761756896972656,"2282":-6.963454246520996,"2283":-2.984731435775757,"2284":-3.155451774597168,"2285":-3.265094041824341,"2286":7.074358940124512,"2287":4.468625545501709,"2288":-2.520479440689087,"2289":-2.1365461349487305,"2290":0.7660428285598755,"2291":0.7935370206832886,"2292":-0.5005323886871338,"2293":1.4811997413635254,"2294":-0.3587687015533447,"2295":-6.106731414794922,"2296":-6.402693271636963,"2297":-7.425357341766357,"2298":2.154597043991089,"2299":5.906785011291504,"2300":-7.0121636390686035,"2301":-1.1442967653274536,"2302":-1.2158632278442383,"2303":9.678105354309082,"2304":3.897580862045288,"2305":0.8209030628204346,"2306":4.538550853729248,"2307":5.981209754943848,"2308":1.451128363609314,"2309":0.47226500511169434,"2310":4.562069416046143,"2311":-6.872969150543213,"2312":0.48202016949653625,"2313":-3.7181010246276855,"2314":0.1524895429611206,"2315":-2.583754301071167,"2316":4.165457248687744,"2317":-1.5210466384887695,"2318":2.8051722049713135,"2319":4.414880275726318,"2320":5.574282169342041,"2321":-1.1099542379379272,"2322":6.647316932678223,"2323":-4.686882972717285,"2324":3.5309910774230957,"2325":5.419824123382568,"2326":-0.07727500051259995,"2327":-0.2598697543144226,"2328":-0.031424134969711304,"2329":-1.129593014717102,"2330":-1.7872196435928345,"2331":-0.33814769983291626,"2332":-2.678067922592163,"2333":0.45401960611343384,"2334":6.048431396484375,"2335":-1.4287199974060059,"2336":0.4970780313014984,"2337":3.163266181945801,"2338":-6.508066654205322,"2339":4.123836040496826,"2340":0.9050419330596924,"2341":-0.6891953945159912,"2342":-2.2670209407806396,"2343":-1.6945756673812866,"2344":-0.23062747716903687,"2345":-5.275907516479492,"2346":2.8663430213928223,"2347":-0.006293571088463068,"2348":-7.488720417022705,"2349":-3.9505903720855713,"2350":-6.134193420410156,"2351":-0.5443683862686157,"2352":7.494712829589844,"2353":-0.6426768898963928,"2354":3.3275763988494873,"2355":-0.4861372113227844,"2356":4.342071533203125,"2357":-0.03185927867889404,"2358":-0.8333526253700256,"2359":-2.275614023208618,"2360":6.81467342376709,"2361":-1.455864429473877,"2362":0.23762238025665283,"2363":-0.7218755483627319,"2364":-4.524272918701172,"2365":1.4274176359176636,"2366":1.7611802816390991,"2367":-2.09991455078125,"2368":1.8315155506134033,"2369":-0.8752152323722839,"2370":5.62092399597168,"2371":0.9289700984954834,"2372":4.7370285987854,"2373":-0.8221960663795471,"2374":-0.9664621949195862,"2375":-1.4685722589492798,"2376":-6.226134777069092,"2377":4.701723575592041,"2378":3.144115447998047,"2379":0.9742007255554199,"2380":1.3919767141342163,"2381":3.7910492420196533,"2382":1.144516110420227,"2383":1.025774359703064,"2384":-1.117328405380249,"2385":-3.2317025661468506,"2386":6.391531944274902,"2387":-5.2246623039245605,"2388":-2.5666308403015137,"2389":0.5749608874320984,"2390":1.5052261352539062,"2391":-2.0380654335021973,"2392":0.25129014253616333,"2393":-0.5924704074859619,"2394":-2.062674045562744,"2395":2.8666210174560547,"2396":-0.518967866897583,"2397":3.894347667694092,"2398":-0.02910713478922844,"2399":-2.6502132415771484,"2400":-3.051285982131958,"2401":3.3256802558898926,"2402":1.295316457748413,"2403":-3.830437183380127,"2404":-0.8671624064445496,"2405":0.5813978910446167,"2406":-0.8241839408874512,"2407":3.421135902404785,"2408":-6.450506210327148,"2409":-1.1698338985443115,"2410":-1.9625365734100342,"2411":7.510501384735107,"2412":0.31498396396636963,"2413":-3.4488439559936523,"2414":-3.194835662841797,"2415":-1.1569701433181763,"2416":3.1779377460479736,"2417":0.8124338984489441,"2418":1.6759898662567139,"2419":1.0831929445266724,"2420":-5.3939690589904785,"2421":0.12267165631055832,"2422":6.411433696746826,"2423":9.441425323486328,"2424":1.9334465265274048,"2425":5.530570983886719,"2426":-10.417868614196777,"2427":-4.72494649887085,"2428":-7.909280776977539,"2429":-2.1319990158081055,"2430":-1.6630820035934448,"2431":12.14149284362793,"2432":-2.4020140171051025,"2433":-1.940340280532837,"2434":6.3929829597473145,"2435":4.818665981292725,"2436":-4.8747172355651855,"2437":1.8948920965194702,"2438":1.2440637350082397,"2439":-3.181946277618408,"2440":-4.386740684509277,"2441":-5.7977142333984375,"2442":5.072551250457764,"2443":4.34749174118042,"2444":-0.08987188339233398,"2445":5.044931411743164,"2446":-5.892734527587891,"2447":12.125597953796387,"2448":-8.737309455871582,"2449":-2.0404255390167236,"2450":-11.91502857208252,"2451":-0.8980257511138916,"2452":-2.351980686187744,"2453":1.9645086526870728,"2454":4.635005950927734,"2455":-0.42440351843833923,"2456":-3.4481985569000244,"2457":4.233041763305664,"2458":-6.414334774017334,"2459":4.100832939147949,"2460":-15.1709566116333,"2461":-5.1081366539001465,"2462":-2.6428213119506836,"2463":-0.28441014885902405,"2464":6.050049781799316,"2465":3.910464286804199,"2466":-2.287055015563965,"2467":0.6435362100601196,"2468":0.4140525460243225,"2469":13.549361228942871,"2470":-7.05487060546875,"2471":5.657188415527344,"2472":7.959748268127441,"2473":0.7203500270843506,"2474":6.15425443649292,"2475":-4.783512115478516,"2476":-1.4100419282913208,"2477":0.23818685114383698,"2478":-6.559261798858643,"2479":3.2407169342041016,"2480":7.198713302612305,"2481":2.6156485080718994,"2482":-4.82441520690918,"2483":-9.904120445251465,"2484":5.803471088409424,"2485":6.472973346710205,"2486":2.6620543003082275,"2487":-4.845660209655762,"2488":-6.2121734619140625,"2489":-2.5261690616607666,"2490":5.83566427230835,"2491":-6.179980278015137,"2492":4.418542861938477,"2493":-1.6451232433319092,"2494":-1.5793336629867554,"2495":1.0969207286834717,"2496":-0.7697079181671143,"2497":-5.449622631072998,"2498":-0.8180589079856873,"2499":-3.3630318641662598,"2500":-1.9598556756973267,"2501":-2.119431972503662,"2502":6.463316440582275,"2503":-2.1517372131347656,"2504":-5.576362609863281,"2505":3.4545702934265137,"2506":-9.026540756225586,"2507":-0.8162360787391663,"2508":-0.9971409440040588,"2509":-5.077009201049805,"2510":1.3450701236724854,"2511":4.7590131759643555,"2512":3.3631062507629395,"2513":0.2463872730731964,"2514":-2.7699475288391113,"2515":-0.18694056570529938,"2516":2.22334623336792,"2517":-3.045468807220459,"2518":-0.1753031462430954,"2519":12.071743965148926,"2520":-9.084491729736328,"2521":-1.0800800323486328,"2522":-8.365840911865234,"2523":-2.334817886352539,"2524":-5.68107271194458,"2525":3.5087661743164062,"2526":-1.0428134202957153,"2527":-3.674492120742798,"2528":-3.2347216606140137,"2529":7.484506130218506,"2530":1.2407011985778809,"2531":-1.964953064918518,"2532":7.084118843078613,"2533":3.6004977226257324,"2534":4.3162407875061035,"2535":9.19615650177002,"2536":-4.005040645599365,"2537":-13.469246864318848,"2538":-7.359161376953125,"2539":5.139495849609375,"2540":-2.0257065296173096,"2541":6.142815589904785,"2542":7.253362655639648,"2543":8.123221397399902,"2544":6.404263019561768,"2545":-4.506112098693848,"2546":-0.9776308536529541,"2547":3.870354175567627,"2548":-12.836775779724121,"2549":2.5930278301239014,"2550":1.1724491119384766,"2551":11.14903736114502,"2552":-2.7627081871032715,"2553":5.085761070251465,"2554":-1.5943281650543213,"2555":4.014938831329346,"2556":0.42151081562042236,"2557":3.07108473777771,"2558":5.6640729904174805,"2559":-7.1983113288879395,"2560":-0.5076811909675598,"2561":15.987386703491211,"2562":-11.995697975158691,"2563":-0.812279462814331,"2564":-4.481217384338379,"2565":0.278844952583313,"2566":11.13534927368164,"2567":-16.287452697753906,"2568":-3.442228078842163,"2569":7.256922721862793,"2570":-5.590654373168945,"2571":-14.783123970031738,"2572":-4.024950981140137,"2573":9.096226692199707,"2574":7.082592964172363,"2575":-1.093275547027588,"2576":3.48950457572937,"2577":12.11752700805664,"2578":4.771925926208496,"2579":7.085872650146484,"2580":3.8300693035125732,"2581":2.740628957748413,"2582":-3.1230010986328125,"2583":-4.829455852508545,"2584":-7.156437397003174,"2585":-0.1816965937614441,"2586":-4.921195030212402,"2587":-12.185954093933105,"2588":-4.051633834838867,"2589":2.7970919609069824,"2590":5.592370510101318,"2591":-4.169097423553467,"2592":0.9464626908302307,"2593":0.9271315932273865,"2594":-4.4806294441223145,"2595":11.840559005737305,"2596":-0.6504501700401306,"2597":10.503151893615723,"2598":-4.840540885925293,"2599":-1.9526848793029785,"2600":-3.567082405090332,"2601":-2.1422786712646484,"2602":0.25355011224746704,"2603":6.7462639808654785,"2604":5.56317138671875,"2605":8.2628812789917,"2606":3.596256971359253,"2607":-3.915346145629883,"2608":2.8738605976104736,"2609":-3.8872575759887695,"2610":17.502674102783203,"2611":-4.965200901031494,"2612":9.899688720703125,"2613":-7.543420791625977,"2614":-6.767550945281982,"2615":-1.0362623929977417,"2616":0.3712083101272583,"2617":5.46248722076416,"2618":8.556928634643555,"2619":-6.098509311676025,"2620":-10.09156608581543,"2621":3.3933544158935547,"2622":-0.7905951738357544,"2623":18.744279861450195,"2624":-0.5868663787841797,"2625":1.4495130777359009,"2626":-13.683073043823242,"2627":2.331087112426758,"2628":5.188169956207275,"2629":-6.280094623565674,"2630":1.6537096500396729,"2631":6.935052871704102,"2632":-2.9133381843566895,"2633":1.4206362962722778,"2634":-8.699797630310059,"2635":3.787022590637207,"2636":8.790292739868164,"2637":-6.801515102386475,"2638":-12.29414176940918,"2639":-2.4537007808685303,"2640":-3.474461317062378,"2641":-9.85215950012207,"2642":-0.4549206793308258,"2643":-2.1005005836486816,"2644":5.4630937576293945,"2645":-5.213038444519043,"2646":4.0719990730285645,"2647":3.973146915435791,"2648":-1.1504639387130737,"2649":-3.309929370880127,"2650":-2.601958990097046,"2651":-0.9547004699707031,"2652":-3.1371400356292725,"2653":4.11739444732666,"2654":4.446488857269287,"2655":-5.1870436668396,"2656":-8.593548774719238,"2657":-0.8789399862289429,"2658":-7.247243881225586,"2659":-0.3415544629096985,"2660":-3.0158615112304688,"2661":3.663504123687744,"2662":-4.495428562164307,"2663":-7.934000492095947,"2664":-2.028604745864868,"2665":2.9541571140289307,"2666":-6.84890079498291,"2667":6.881954193115234,"2668":-5.7858357429504395,"2669":2.6776769161224365,"2670":6.891805648803711,"2671":-7.018965721130371,"2672":-1.869496464729309,"2673":-5.630474090576172,"2674":-6.308408737182617,"2675":5.386518478393555,"2676":3.286705732345581,"2677":-0.8378679156303406,"2678":1.6090422868728638,"2679":-0.5150648355484009,"2680":1.1351432800292969,"2681":6.312397480010986,"2682":0.15877410769462585,"2683":10.443263053894043,"2684":11.447070121765137,"2685":8.211811065673828,"2686":6.177246570587158,"2687":2.5979721546173096,"2688":0.5002226829528809,"2689":-0.8768264651298523,"2690":3.491232395172119,"2691":2.433542490005493,"2692":5.780114650726318,"2693":-3.3103830814361572,"2694":-3.506686210632324,"2695":10.387468338012695,"2696":-4.651826858520508,"2697":-2.5407726764678955,"2698":-1.3330456018447876,"2699":1.3978146314620972,"2700":5.026362419128418,"2701":1.9641207456588745,"2702":0.043546050786972046,"2703":3.1124746799468994,"2704":-0.7930532097816467,"2705":3.1455724239349365,"2706":3.6447653770446777,"2707":-2.2384555339813232,"2708":-3.080113649368286,"2709":-4.869940280914307,"2710":-3.4327688217163086,"2711":0.537402868270874,"2712":0.361423522233963,"2713":6.015832901000977,"2714":-2.032735824584961,"2715":2.45473575592041,"2716":1.3198360204696655,"2717":-4.014298439025879,"2718":7.069087982177734,"2719":5.478061199188232,"2720":-18.456707000732422,"2721":-2.8672332763671875,"2722":1.4821813106536865,"2723":-5.335504055023193,"2724":-7.531066417694092,"2725":8.262682914733887,"2726":-1.0073251724243164,"2727":-2.3526294231414795,"2728":0.2707449197769165,"2729":0.10778389126062393,"2730":10.189570426940918,"2731":3.738247871398926,"2732":-7.488698482513428,"2733":10.283995628356934,"2734":0.527783215045929,"2735":1.7628275156021118,"2736":9.957805633544922,"2737":-2.535409450531006,"2738":-3.28312611579895,"2739":0.03161035478115082,"2740":9.367156028747559,"2741":9.142043113708496,"2742":8.15606689453125,"2743":-4.3345465660095215,"2744":0.6606354713439941,"2745":-6.2834038734436035,"2746":-3.8959147930145264,"2747":-4.583926677703857,"2748":1.656363844871521,"2749":2.782203197479248,"2750":3.2667908668518066,"2751":-3.3040294647216797,"2752":-2.245932102203369,"2753":-11.862150192260742,"2754":-0.8473451137542725,"2755":-6.130543231964111,"2756":-5.753646373748779,"2757":8.578510284423828,"2758":2.297708511352539,"2759":-4.831061840057373,"2760":2.6400868892669678,"2761":1.9534114599227905,"2762":-2.661564350128174,"2763":-9.55848503112793,"2764":-6.1158976554870605,"2765":6.368637561798096,"2766":6.59352970123291,"2767":0.6210438013076782,"2768":-14.936836242675781,"2769":-17.16202735900879,"2770":-2.224588632583618,"2771":4.087973117828369,"2772":8.14291763305664,"2773":2.1759910583496094,"2774":4.640954971313477,"2775":7.428234100341797,"2776":8.667008399963379,"2777":6.972862243652344,"2778":6.1172661781311035,"2779":-6.622881889343262,"2780":10.953243255615234,"2781":-11.741351127624512,"2782":-0.4081162214279175,"2783":0.184762641787529,"2784":6.940740585327148,"2785":1.788361668586731,"2786":8.06779670715332,"2787":3.9965476989746094,"2788":-10.006210327148438,"2789":-2.2986810207366943,"2790":-2.811922788619995,"2791":-0.928902804851532,"2792":1.4280318021774292,"2793":6.409087181091309,"2794":-0.9051936268806458,"2795":-3.733397960662842,"2796":9.165040016174316,"2797":11.598360061645508,"2798":2.041588544845581,"2799":2.3239612579345703,"2800":11.771733283996582,"2801":1.099212884902954,"2802":5.464604377746582,"2803":-8.517677307128906,"2804":-2.614856481552124,"2805":-5.330564498901367,"2806":-15.932890892028809,"2807":-1.2841194868087769,"2808":-0.010093248449265957,"2809":-0.8247238993644714,"2810":3.4822263717651367,"2811":-0.8273113369941711,"2812":5.333743572235107,"2813":0.20719847083091736,"2814":-0.1458752602338791,"2815":1.2398195266723633,"2816":-5.157566070556641,"2817":-4.527209281921387,"2818":1.188711404800415,"2819":-6.618095874786377,"2820":3.586113929748535,"2821":4.844419002532959,"2822":-1.8417704105377197,"2823":-3.0628409385681152,"2824":0.7640916109085083,"2825":-11.39029312133789,"2826":1.3579230308532715,"2827":9.424161911010742,"2828":-3.4066994190216064,"2829":10.853143692016602,"2830":-0.3693578541278839,"2831":-3.936973810195923,"2832":6.3744120597839355,"2833":1.9258936643600464,"2834":5.556674957275391,"2835":1.9392626285552979,"2836":7.8537139892578125,"2837":-7.420043468475342,"2838":-7.1184163093566895,"2839":-0.48205944895744324,"2840":7.286314487457275,"2841":2.6930415630340576,"2842":0.9929761290550232,"2843":-6.178987979888916,"2844":-0.5804453492164612,"2845":-0.11017660796642303,"2846":9.399205207824707,"2847":-3.521893262863159,"2848":-3.6986446380615234,"2849":-0.3063701391220093,"2850":-1.261976718902588,"2851":12.179962158203125,"2852":5.427701950073242,"2853":0.0655423179268837,"2854":1.1184980869293213,"2855":3.3609015941619873,"2856":7.288264274597168,"2857":-9.824457168579102,"2858":-1.25667405128479,"2859":-5.547705173492432,"2860":-3.091296434402466,"2861":3.691952705383301,"2862":-4.516277313232422,"2863":3.361171007156372,"2864":0.5319705605506897,"2865":-2.6122725009918213,"2866":-10.110346794128418,"2867":-6.737739562988281,"2868":3.9766931533813477,"2869":-2.1378085613250732,"2870":6.912522315979004,"2871":-0.4643544852733612,"2872":-5.128508567810059,"2873":-2.8362908363342285,"2874":5.709592342376709,"2875":11.723944664001465,"2876":2.7176685333251953,"2877":1.9311044216156006,"2878":-4.936844825744629,"2879":-1.2553870677947998,"2880":10.639263153076172,"2881":0.777519166469574,"2882":8.105486869812012,"2883":0.47149109840393066,"2884":4.560410022735596,"2885":3.9959657192230225,"2886":0.7996930480003357,"2887":-11.777640342712402,"2888":1.2834773063659668,"2889":-13.912742614746094,"2890":-4.9721574783325195,"2891":-2.140049457550049,"2892":4.713963508605957,"2893":3.375231981277466,"2894":3.974128484725952,"2895":0.7024425268173218,"2896":0.32021501660346985,"2897":0.06126096472144127,"2898":-8.600016593933105,"2899":4.905171871185303,"2900":-1.1175512075424194,"2901":1.487046718597412,"2902":-15.109674453735352,"2903":4.747917652130127,"2904":3.73513126373291,"2905":8.259562492370605,"2906":-5.847396373748779,"2907":-4.989719390869141,"2908":9.151970863342285,"2909":1.0785837173461914,"2910":-2.1829450130462646,"2911":-0.9107545018196106,"2912":-2.963949203491211,"2913":-5.266013145446777,"2914":2.0991053581237793,"2915":-0.7178266048431396,"2916":0.6993365287780762,"2917":0.45477840304374695,"2918":1.864621639251709,"2919":1.2099828720092773,"2920":1.3695875406265259,"2921":0.3382054269313812,"2922":1.2061424255371094,"2923":0.2671840488910675,"2924":-0.25884002447128296,"2925":0.47366154193878174,"2926":-0.4104641377925873,"2927":2.4083938598632812,"2928":-0.8059567809104919,"2929":-0.29457491636276245,"2930":-0.41302722692489624,"2931":1.7609885931015015,"2932":-0.11514521390199661,"2933":1.6057803630828857,"2934":0.7941993474960327,"2935":0.25038397312164307,"2936":-0.27595484256744385,"2937":0.676014244556427,"2938":-0.17222772538661957,"2939":1.1890722513198853,"2940":-2.778989553451538,"2941":1.917352557182312,"2942":-1.1473157405853271,"2943":0.8679385781288147,"2944":0.06392112374305725,"2945":0.8761209845542908,"2946":-0.3202650547027588,"2947":1.8038541078567505,"2948":1.9504610300064087,"2949":-0.014469623565673828,"2950":-1.6145374774932861,"2951":0.29366612434387207,"2952":1.0471127033233643,"2953":1.6699960231781006,"2954":-0.23669889569282532,"2955":1.2357527017593384,"2956":0.7881649732589722,"2957":0.8371306657791138,"2958":-1.9642608165740967,"2959":1.2539269924163818,"2960":-1.1429692506790161,"2961":-0.44487816095352173,"2962":0.041932035237550735,"2963":-1.986465334892273,"2964":-0.07900264114141464,"2965":-0.21822354197502136,"2966":0.21053750813007355,"2967":0.8360399603843689,"2968":-0.2967688739299774,"2969":-0.32724806666374207,"2970":0.764070987701416,"2971":-0.9576173424720764,"2972":0.37030020356178284,"2973":0.21641020476818085,"2974":-0.10032765567302704,"2975":1.9264270067214966,"2976":-0.8630359172821045,"2977":0.7412859797477722,"2978":0.1817227602005005,"2979":-0.9401789307594299,"2980":0.9215224981307983,"2981":0.11569453775882721,"2982":2.4874355792999268,"2983":0.6737325191497803,"2984":-0.7908942699432373,"2985":-0.9899333715438843,"2986":0.5033934712409973,"2987":0.4254577159881592,"2988":0.8108130693435669,"2989":0.6347565650939941,"2990":-0.41695165634155273,"2991":0.9744715094566345,"2992":0.5343567132949829,"2993":-1.1896998882293701,"2994":1.1021593809127808,"2995":-0.7813801765441895,"2996":-0.27626147866249084,"2997":0.11899477243423462,"2998":0.09467263519763947,"2999":0.18845245242118835,"3000":1.3350952863693237,"3001":0.5239399671554565,"3002":2.706637144088745,"3003":0.06988123804330826,"3004":-0.0733267068862915,"3005":0.8044003248214722,"3006":-0.21315787732601166,"3007":0.41063565015792847,"3008":-0.16537006199359894,"3009":-1.3800233602523804,"3010":0.2711484432220459,"3011":0.008977406658232212,"3012":1.2062548398971558,"3013":-1.4922112226486206,"3014":1.2570571899414062,"3015":-0.8670209050178528,"3016":0.5429272651672363,"3017":0.3280039131641388,"3018":-0.22823022305965424,"3019":-0.7403841018676758,"3020":-0.18868087232112885,"3021":0.21201300621032715,"3022":-0.25747019052505493,"3023":-1.6439474821090698,"3024":-0.1968284696340561,"3025":-0.016799291595816612,"3026":-0.0038042254745960236,"3027":0.019773148000240326,"3028":0.004305606707930565,"3029":-0.01470746099948883,"3030":0.010262747295200825,"3031":0.016274327412247658,"3032":-0.00638818833976984,"3033":0.012547561898827553,"3034":0.01729799248278141,"3035":-0.013393893837928772,"3036":0.0162068922072649,"3037":-0.004606932867318392,"3038":-0.01683763600885868,"3039":-0.018903452903032303,"3040":-0.012036512605845928,"3041":0.014769157394766808,"3042":-0.004357311874628067,"3043":0.006736980751156807,"3044":0.011625138111412525,"3045":0.00726556871086359,"3046":-0.00890918355435133,"3047":-0.002408862579613924,"3048":0.0020386776886880398,"3049":-0.015677714720368385,"3050":0.017011526972055435,"3051":0.008122526109218597,"3052":-0.004086278844624758,"3053":-0.017352569848299026,"3054":-0.017667725682258606,"3055":-0.010003666393458843,"3056":-0.0032560161780565977,"3057":-0.010675760917365551,"3058":-0.005245730746537447,"3059":-0.004176492337137461,"3060":0.017029933631420135,"3061":-0.010683784261345863,"3062":0.0079148905351758,"3063":-0.007429160177707672,"3064":0.0036276308819651604,"3065":-0.0048295240849256516,"3066":-0.013438181020319462,"3067":0.01012023538351059,"3068":0.019297396764159203,"3069":-0.01323714479804039,"3070":0.003335188142955303,"3071":0.003530192421749234,"3072":0.0157309677451849,"3073":-0.0014441205421462655,"3074":-0.013112012296915054,"3075":-0.011696462519466877,"3076":-0.018605001270771027,"3077":0.014064936898648739,"3078":-0.005068379919975996,"3079":0.0040084561333060265}},"hiddenLayers":[{"inputMatrix":{"rows":20,"columns":55,"weights":{"0":0.553794264793396,"1":-1.026404619216919,"2":-0.17143051326274872,"3":-0.5824628472328186,"4":-1.0774825811386108,"5":-0.4938475489616394,"6":1.2540547847747803,"7":0.3600061237812042,"8":-0.0064858258701860905,"9":-0.8242775201797485,"10":-0.39175423979759216,"11":0.0874488353729248,"12":-0.28860709071159363,"13":-0.19269774854183197,"14":-1.6505796909332275,"15":0.2505728304386139,"16":0.26837778091430664,"17":0.39795932173728943,"18":0.24871644377708435,"19":0.11826183646917343,"20":0.4332156479358673,"21":0.4645463824272156,"22":-0.8453665971755981,"23":-0.6877442598342896,"24":0.42799028754234314,"25":0.20476867258548737,"26":0.5014960169792175,"27":0.36151352524757385,"28":1.1056184768676758,"29":0.3263426125049591,"30":-0.5557357668876648,"31":0.5205181241035461,"32":-0.3610716462135315,"33":-0.40986597537994385,"34":0.24788138270378113,"35":-0.16372326016426086,"36":-0.18137721717357635,"37":-1.2046501636505127,"38":-0.348764032125473,"39":0.038198892027139664,"40":0.6049832701683044,"41":0.2801966965198517,"42":-0.7215173840522766,"43":0.047447942197322845,"44":-0.024879859760403633,"45":0.13094289600849152,"46":0.19484898447990417,"47":1.0391395092010498,"48":0.409656286239624,"49":-0.05000011622905731,"50":0.9704829454421997,"51":-0.19590741395950317,"52":0.16929659247398376,"53":0.541141927242279,"54":-1.1366065740585327,"55":0.1259550303220749,"56":-0.8225656747817993,"57":-0.20201878249645233,"58":-0.6296381950378418,"59":0.18811023235321045,"60":0.6193767786026001,"61":-0.23362119495868683,"62":1.1921145915985107,"63":0.505829930305481,"64":-0.0807570219039917,"65":0.6183063387870789,"66":0.4933152496814728,"67":-0.3370065689086914,"68":-0.19111591577529907,"69":-0.2895275950431824,"70":0.5505520701408386,"71":0.4904482066631317,"72":-1.0868934392929077,"73":-0.05409638211131096,"74":0.30879220366477966,"75":0.744479775428772,"76":0.1504991203546524,"77":0.21275898814201355,"78":-0.5788998603820801,"79":-0.3032861351966858,"80":0.039227429777383804,"81":0.5950400233268738,"82":-0.365856796503067,"83":1.1979742050170898,"84":-1.2671507596969604,"85":1.1099798679351807,"86":0.7461262345314026,"87":-0.3840911388397217,"88":0.2722912132740021,"89":-0.11479885131120682,"90":-0.6130420565605164,"91":-0.38642463088035583,"92":-0.24687708914279938,"93":-0.022883858531713486,"94":-0.7673766613006592,"95":-0.35131552815437317,"96":-0.5816389918327332,"97":-0.2767253816127777,"98":-0.2650139331817627,"99":-0.7509193420410156,"100":0.2239808887243271,"101":0.30518752336502075,"102":0.6944072246551514,"103":0.5711917281150818,"104":-0.4037528932094574,"105":0.7543591260910034,"106":-1.1626516580581665,"107":-0.2875746786594391,"108":-0.3313429057598114,"109":0.03499409556388855,"110":0.23629502952098846,"111":-1.011840581893921,"112":0.5557342171669006,"113":0.1395101249217987,"114":0.5133416056632996,"115":0.4431397616863251,"116":-0.3914225101470947,"117":0.22021761536598206,"118":-0.5249143242835999,"119":-0.18163767457008362,"120":-0.231088787317276,"121":0.09925242513418198,"122":-0.29617276787757874,"123":-0.6901549696922302,"124":-0.6567946672439575,"125":0.0334288589656353,"126":-0.4230896234512329,"127":-0.3783591389656067,"128":0.5311406254768372,"129":0.2806687653064728,"130":-0.7192748785018921,"131":1.2097657918930054,"132":-0.24837259948253632,"133":0.5912784934043884,"134":0.8550880551338196,"135":-0.7478287220001221,"136":0.6234635710716248,"137":0.9089635014533997,"138":0.4707620143890381,"139":0.3545643389225006,"140":0.29205837845802307,"141":-1.3492395877838135,"142":-0.4302283823490143,"143":0.44848212599754333,"144":0.6072919964790344,"145":0.3295207917690277,"146":1.289008378982544,"147":0.8829163312911987,"148":0.5996575951576233,"149":0.19437944889068604,"150":0.22396159172058105,"151":0.04993757605552673,"152":-0.148150235414505,"153":-0.8865643739700317,"154":-1.5523194074630737,"155":-0.27143144607543945,"156":-0.14683939516544342,"157":0.908848226070404,"158":0.3504631221294403,"159":-0.5199503898620605,"160":1.1210110187530518,"161":-0.9502824544906616,"162":-0.47223854064941406,"163":-0.5292304754257202,"164":0.31762027740478516,"165":0.6085123419761658,"166":-0.6831796169281006,"167":-0.4927230775356293,"168":0.25242581963539124,"169":-0.19816292822360992,"170":0.3904947340488434,"171":-0.4033145606517792,"172":-0.2497982382774353,"173":0.31664833426475525,"174":-0.024233728647232056,"175":0.310680091381073,"176":0.4778176248073578,"177":-0.49651217460632324,"178":0.06407320499420166,"179":-0.27543163299560547,"180":0.32954996824264526,"181":0.28031259775161743,"182":0.20901961624622345,"183":0.7548114061355591,"184":1.0598938465118408,"185":-0.8184821009635925,"186":0.18881085515022278,"187":0.25495776534080505,"188":-1.5679774284362793,"189":-0.020997831597924232,"190":-0.6946912407875061,"191":-0.20797693729400635,"192":-0.12214918434619904,"193":0.0674961656332016,"194":0.7134448885917664,"195":0.34184136986732483,"196":0.9897624850273132,"197":-0.26559877395629883,"198":0.12222829461097717,"199":-0.2535973787307739,"200":-0.376451700925827,"201":0.3926733136177063,"202":-1.0987739562988281,"203":0.45093050599098206,"204":0.4993027448654175,"205":0.4092397093772888,"206":0.3176649510860443,"207":0.13002021610736847,"208":-0.5764643549919128,"209":0.8748809099197388,"210":-0.189124196767807,"211":0.6027076244354248,"212":0.5040786266326904,"213":-0.6663684248924255,"214":-0.5872220993041992,"215":0.5076358914375305,"216":-0.9081845879554749,"217":-0.23542332649230957,"218":-0.2062286138534546,"219":-0.7179374098777771,"220":-0.38087794184684753,"221":0.30983448028564453,"222":0.3394755423069,"223":0.6022635102272034,"224":1.1611485481262207,"225":-0.23747633397579193,"226":1.170300841331482,"227":0.7427268028259277,"228":-0.5502333045005798,"229":-0.4450327157974243,"230":-0.7875754833221436,"231":0.43159452080726624,"232":0.16048435866832733,"233":0.13177546858787537,"234":-0.06296338140964508,"235":-0.047686345875263214,"236":-0.12139686942100525,"237":0.05866408348083496,"238":0.4574757218360901,"239":-0.05781704932451248,"240":-0.034915741533041,"241":0.6824579238891602,"242":-0.023324910551309586,"243":1.3696142435073853,"244":0.034660764038562775,"245":-0.45498254895210266,"246":0.07353789359331131,"247":0.28556758165359497,"248":-0.5571802258491516,"249":-0.4699975550174713,"250":-0.46097108721733093,"251":-1.0873465538024902,"252":0.9072964787483215,"253":0.05016396567225456,"254":0.8562911152839661,"255":0.04612286016345024,"256":0.24153655767440796,"257":0.8478817939758301,"258":0.11885422468185425,"259":0.093175008893013,"260":-0.3126266598701477,"261":0.14661921560764313,"262":-0.19208472967147827,"263":-0.5374796390533447,"264":-1.492564082145691,"265":-0.1712607592344284,"266":-0.6037678718566895,"267":-0.8598303198814392,"268":-0.49894511699676514,"269":0.7624123692512512,"270":0.8412131667137146,"271":-1.0431126356124878,"272":0.14839139580726624,"273":-0.7403359413146973,"274":-0.14645349979400635,"275":-0.293618768453598,"276":0.272349089384079,"277":-0.5349552035331726,"278":0.3847654163837433,"279":0.11182735115289688,"280":1.1563793420791626,"281":0.1871858686208725,"282":-0.08877480775117874,"283":-0.9072195291519165,"284":1.344130039215088,"285":0.14710396528244019,"286":0.8737121224403381,"287":0.20563195645809174,"288":-0.5440046191215515,"289":-0.6736449599266052,"290":-0.9127529859542847,"291":-0.48726943135261536,"292":0.39839768409729004,"293":-0.5554478168487549,"294":-0.11027046293020248,"295":0.08834601938724518,"296":0.9461466670036316,"297":0.059757206588983536,"298":1.261703372001648,"299":0.5976054072380066,"300":-0.1534646898508072,"301":0.12570032477378845,"302":1.4642428159713745,"303":1.228470802307129,"304":0.022918689996004105,"305":-2.0170981884002686,"306":-0.31014055013656616,"307":-0.44476261734962463,"308":-0.1427384465932846,"309":0.09792821109294891,"310":0.7350008487701416,"311":0.5184199213981628,"312":0.0302111953496933,"313":0.13174450397491455,"314":0.4789145290851593,"315":0.08943230658769608,"316":-0.29016464948654175,"317":-0.5261653065681458,"318":-1.02279531955719,"319":0.509491503238678,"320":0.3825318515300751,"321":-0.2229739874601364,"322":-1.038512945175171,"323":-0.16478393971920013,"324":-0.19351726770401,"325":-0.7948430776596069,"326":0.9545534253120422,"327":-0.1757151186466217,"328":-0.6262421607971191,"329":0.41687941551208496,"330":-0.8679501414299011,"331":-0.867226779460907,"332":1.2982052564620972,"333":0.18892575800418854,"334":-1.5080715417861938,"335":-0.2545115053653717,"336":-0.35853976011276245,"337":0.5585613250732422,"338":0.5701860785484314,"339":-0.968995213508606,"340":-0.34837332367897034,"341":0.503358006477356,"342":0.076221764087677,"343":-0.473407119512558,"344":-0.8374929428100586,"345":0.29953521490097046,"346":-0.26166966557502747,"347":-0.35814905166625977,"348":0.02197265811264515,"349":-0.5806753635406494,"350":-0.15516845881938934,"351":-0.11397972702980042,"352":0.4370919167995453,"353":0.11693531274795532,"354":-0.3142668306827545,"355":-0.19525815546512604,"356":1.030086874961853,"357":-0.10413399338722229,"358":-0.5929961204528809,"359":0.23548565804958344,"360":-0.42794501781463623,"361":1.1845639944076538,"362":0.7878654599189758,"363":-0.4630924165248871,"364":0.7942575216293335,"365":0.46211808919906616,"366":1.1505539417266846,"367":-0.5323830246925354,"368":0.20423124730587006,"369":-0.014518915675580502,"370":-0.3097074329853058,"371":0.17377164959907532,"372":-0.01533136609941721,"373":-1.0771880149841309,"374":-1.2466979026794434,"375":0.5432100296020508,"376":0.8504817485809326,"377":1.2162760496139526,"378":0.023757675662636757,"379":0.1920946091413498,"380":-0.6234466433525085,"381":0.14055100083351135,"382":-0.8023502230644226,"383":-0.0087124677374959,"384":-0.05646869167685509,"385":0.7829597592353821,"386":-0.13284841179847717,"387":0.14938636124134064,"388":-0.0009355462971143425,"389":-0.1931871622800827,"390":-0.05112522840499878,"391":-1.1604794263839722,"392":-0.19614365696907043,"393":0.26992008090019226,"394":0.20386365056037903,"395":0.4627762734889984,"396":-0.34859907627105713,"397":0.507748544216156,"398":0.8038104772567749,"399":-1.2782478332519531,"400":0.6348686218261719,"401":0.6154026985168457,"402":-0.3558748662471771,"403":-0.49623507261276245,"404":-0.0014330231351777911,"405":1.2169357538223267,"406":1.8581308126449585,"407":0.08852967619895935,"408":-0.03194987028837204,"409":-0.04039369523525238,"410":0.20354770123958588,"411":0.08354756981134415,"412":-0.2576591372489929,"413":0.36927470564842224,"414":-0.20155301690101624,"415":0.7799773812294006,"416":0.9393718838691711,"417":-0.43551740050315857,"418":0.6570218801498413,"419":0.4421570599079132,"420":0.5527492165565491,"421":-0.48764878511428833,"422":0.5377482175827026,"423":1.096785545349121,"424":-0.30850088596343994,"425":0.21651965379714966,"426":-0.0005419884691946208,"427":0.21557122468948364,"428":1.1488432884216309,"429":-0.21545888483524323,"430":-0.1582835167646408,"431":0.7779667973518372,"432":-0.006635864730924368,"433":0.3882488012313843,"434":-0.5506783127784729,"435":0.40898987650871277,"436":-0.10318423807621002,"437":-0.335466593503952,"438":0.28982555866241455,"439":-0.7915225028991699,"440":0.5037056803703308,"441":-0.29723355174064636,"442":0.08461786061525345,"443":-0.18153096735477448,"444":0.6039038300514221,"445":-0.36720263957977295,"446":-1.1389771699905396,"447":0.750394344329834,"448":-0.025226064026355743,"449":-0.7361921072006226,"450":0.528308093547821,"451":0.011202759109437466,"452":0.10726305842399597,"453":-0.16793149709701538,"454":-0.5489875078201294,"455":-0.12212876975536346,"456":-0.1205320879817009,"457":-0.7211446762084961,"458":-0.20073185861110687,"459":-0.492366760969162,"460":0.7553554177284241,"461":0.5837907791137695,"462":0.6507917642593384,"463":-0.6751183271408081,"464":0.2191135436296463,"465":-0.49074414372444153,"466":0.6784644722938538,"467":0.07744888961315155,"468":-0.8004301190376282,"469":-0.15437684953212738,"470":0.31288737058639526,"471":-0.3783736824989319,"472":-0.30912575125694275,"473":0.1335015445947647,"474":0.15971380472183228,"475":0.06315577775239944,"476":0.1305818110704422,"477":0.6002914309501648,"478":-0.21359659731388092,"479":-0.24769477546215057,"480":0.3502553105354309,"481":-0.16069185733795166,"482":-0.08390434086322784,"483":-0.0949019193649292,"484":-0.5139657258987427,"485":-0.0921124592423439,"486":-0.1150771901011467,"487":0.8604876399040222,"488":0.9951013326644897,"489":-1.1100647449493408,"490":0.4225957691669464,"491":0.33052578568458557,"492":0.2652888596057892,"493":0.5626034140586853,"494":-0.02838178165256977,"495":0.8950427770614624,"496":0.46855106949806213,"497":0.5469518303871155,"498":-0.9333320260047913,"499":-0.374584436416626,"500":0.6490963697433472,"501":1.9531581401824951,"502":0.1778075248003006,"503":0.5559951066970825,"504":-0.04298745468258858,"505":-0.22498682141304016,"506":0.27129852771759033,"507":0.18986225128173828,"508":-0.5886121988296509,"509":-0.8027212619781494,"510":1.3004294633865356,"511":-0.28296592831611633,"512":0.5544136166572571,"513":0.050357162952423096,"514":2.545957565307617,"515":-0.2458966076374054,"516":-0.14066053926944733,"517":0.09473346918821335,"518":-0.06004095450043678,"519":-0.11932698637247086,"520":-0.3832892179489136,"521":0.9279562830924988,"522":-0.504654049873352,"523":0.2851795554161072,"524":-0.2348809540271759,"525":1.2363914251327515,"526":-0.33066484332084656,"527":-0.7893961668014526,"528":0.1277296245098114,"529":-0.0682947114109993,"530":0.009068381041288376,"531":0.12891021370887756,"532":-0.7532825469970703,"533":-0.7343385219573975,"534":-0.06946008652448654,"535":-0.05037911981344223,"536":0.9752213358879089,"537":-0.24759292602539062,"538":-1.2662490606307983,"539":-0.373344361782074,"540":0.055178750306367874,"541":0.7063143849372864,"542":0.7991487979888916,"543":0.05264481529593468,"544":-0.03081265278160572,"545":-0.12157915532588959,"546":-0.7753984928131104,"547":-0.17535363137722015,"548":-0.2184656411409378,"549":-0.6991832852363586,"550":0.05973898246884346,"551":0.4440360963344574,"552":-0.7879016399383545,"553":-0.2904204726219177,"554":1.069207787513733,"555":0.1676470786333084,"556":-1.091455101966858,"557":-0.13362929224967957,"558":-1.1470497846603394,"559":-0.6671666502952576,"560":0.7181915044784546,"561":0.8975481390953064,"562":-0.034288033843040466,"563":-1.000938057899475,"564":-0.8633019924163818,"565":-0.27225634455680847,"566":0.48015332221984863,"567":0.4316181242465973,"568":0.10308325290679932,"569":0.5228339433670044,"570":-0.2344650775194168,"571":1.3860944509506226,"572":-0.06259562075138092,"573":1.1262376308441162,"574":0.4255775213241577,"575":1.1438167095184326,"576":0.48135092854499817,"577":-0.25318095088005066,"578":-0.23495137691497803,"579":0.813079833984375,"580":-0.6302738189697266,"581":-0.8598620891571045,"582":-0.32392507791519165,"583":-0.2789604365825653,"584":0.1850738525390625,"585":-0.02589784376323223,"586":-0.8783435225486755,"587":-0.09967734664678574,"588":0.5723029971122742,"589":-0.7346586585044861,"590":-0.18784920871257782,"591":-0.3518315851688385,"592":-0.3171839416027069,"593":-0.89244145154953,"594":-0.22973543405532837,"595":0.350053608417511,"596":0.21992430090904236,"597":-0.3757609724998474,"598":-0.20778435468673706,"599":-0.13430504500865936,"600":0.1576872617006302,"601":0.11766453087329865,"602":0.5562518239021301,"603":-0.7613121271133423,"604":-0.028895443305373192,"605":0.2944253385066986,"606":-0.8411242365837097,"607":0.6096039414405823,"608":-0.00009063133620657027,"609":2.01426362991333,"610":-0.5680963397026062,"611":-0.09330951422452927,"612":-1.0673409700393677,"613":-1.0083184242248535,"614":-0.525984525680542,"615":-0.23913691937923431,"616":0.2534823715686798,"617":-0.3574903905391693,"618":-1.4399391412734985,"619":-0.6578899025917053,"620":-1.0195679664611816,"621":-0.535671055316925,"622":-0.5639715790748596,"623":-1.4755051136016846,"624":0.8876484632492065,"625":-0.7090956568717957,"626":0.6232185959815979,"627":-0.16727618873119354,"628":0.3084375560283661,"629":0.8303819298744202,"630":-0.9306885600090027,"631":1.1878520250320435,"632":1.6117438077926636,"633":-0.2908802926540375,"634":0.4849756062030792,"635":-0.43683409690856934,"636":-0.5247715711593628,"637":-0.04029478505253792,"638":0.24706369638442993,"639":0.26047879457473755,"640":-0.49948760867118835,"641":0.5431678891181946,"642":0.616125226020813,"643":-0.09089664369821548,"644":-1.4631381034851074,"645":-0.6402193903923035,"646":0.03272334858775139,"647":0.11085852235555649,"648":0.43205776810646057,"649":-0.36901211738586426,"650":-0.37476545572280884,"651":0.47467538714408875,"652":0.7889572381973267,"653":0.7925376892089844,"654":-1.4388072490692139,"655":-0.3877311050891876,"656":1.067575454711914,"657":-0.45332810282707214,"658":1.1753215789794922,"659":-0.3678247332572937,"660":-0.3665890693664551,"661":-0.1862994134426117,"662":0.040508732199668884,"663":0.0716637596487999,"664":0.7010443210601807,"665":-0.7473739981651306,"666":0.1834893375635147,"667":0.21861417591571808,"668":0.24001801013946533,"669":0.002535408129915595,"670":-0.2752286195755005,"671":-0.6446468830108643,"672":-0.6183960437774658,"673":-0.5861940979957581,"674":-0.21903564035892487,"675":0.07906308025121689,"676":-0.16699138283729553,"677":-0.42945051193237305,"678":0.2661537230014801,"679":0.7108714580535889,"680":-0.7132406830787659,"681":0.24600958824157715,"682":0.20031185448169708,"683":0.5240749716758728,"684":0.5014910101890564,"685":-0.9265880584716797,"686":0.15493319928646088,"687":0.13019490242004395,"688":-0.13341066241264343,"689":0.7607594132423401,"690":-0.262606143951416,"691":0.8970251083374023,"692":0.6351063251495361,"693":0.8000532984733582,"694":-1.1947112083435059,"695":-0.1351916342973709,"696":-0.38882607221603394,"697":0.10110636055469513,"698":0.6628634333610535,"699":0.30130454897880554,"700":1.2409385442733765,"701":-0.2336331158876419,"702":0.9509833455085754,"703":-0.19664596021175385,"704":-0.4308598041534424,"705":-0.24320732057094574,"706":1.00114107131958,"707":0.3511589467525482,"708":0.18938268721103668,"709":-0.6412018537521362,"710":0.6462979912757874,"711":-0.3976321220397949,"712":0.07292792946100235,"713":0.49597910046577454,